3597 32
3809 -0.20986703 -0.4595271 -0.3877827 -0.47376645 -0.25716695 -0.0773294 0.54490286 0.048003748 0.3224648 -0.45447615 -0.3202119 0.11570956 0.05819495 -0.1218694 -0.4614672 0.8751529 -0.54988384 -0.6868602 -0.5690465 0.23245367 0.9608717 0.5857082 -0.3629452 -0.20614514 0.05497348 -0.8119647 -0.18647297 0.9175348 -0.107244834 -0.14973812 0.75206107 0.17346297
6416 0.15820841 -0.76029944 -0.024851521 -0.019366466 0.60204536 0.61234945 0.66865206 -0.06996054 0.8717381 -0.18625008 -0.21114661 -1.3238155 0.27615714 -0.36771724 0.1449774 -0.10318899 -0.017626543 -0.77534586 -0.43838182 0.78155637 -0.08002259 0.83780575 0.6374713 0.11797407 0.43499917 -1.1342503 -0.5488831 0.46295935 0.053809173 -0.12101192 0.4266366 0.12314038
7426 -0.036581654 0.4993947 -0.7448463 0.21153149 -0.12755518 -0.32347462 -0.38005438 0.2503696 0.84668416 -0.33381262 -0.07797063 -1.0664788 0.5674647 -0.30629292 0.5254243 0.22204661 -0.0016936727 -0.5914365 0.22078656 0.6952097 -0.6560439 1.782488 1.5008365 -0.48704562 -0.66491795 -0.7056924 0.41867977 -0.64977604 0.39961666 -0.67278326 0.31165472 0.52375025
7082 -0.2220946 -0.816797 0.4249115 0.31970635 -0.44278565 0.2580145 -0.111522265 -0.47395635 -0.063971624 0.39551353 0.732495 -0.04995766 0.107198566 -0.3018636 0.9737442 0.35697883 -0.8446626 1.2498435 0.19887194 0.7392778 0.28771782 0.97928596 -0.88683784 -0.6993739 0.23074795 -0.03937134 -0.11197076 -1.0956764 1.3454102 0.23082466 0.18123949 1.1788002
7272 0.4838913 0.49126914 0.49792898 -0.2678819 -0.75880724 -0.60325986 0.7356632 -0.3156327 0.44477636 0.40153846 0.12315984 0.671597 1.1370296 -0.8024873 -0.34735897 0.3176704 -0.78303325 0.6687322 -0.5524133 0.52670175 0.31068334 1.1513121 -0.6054478 -0.9757524 0.44401482 0.55550534 -0.3483718 0.87852085 0.4543616 -0.20030014 0.41780677 0.78298557
7571 -0.7764607 0.8202794 -0.15849274 -0.8719432 -0.06166774 0.1764924 0.68156105 0.2874523 0.8731558 -0.25045982 0.1368397 -0.3184314 0.58571327 -0.15309513 0.63427114 -0.24628519 -0.004381569 -0.42092395 0.16532786 1.0501165 -0.5770925 0.81171787 0.89871544 -1.4848635 -0.19666155 -0.65000564 -0.60858727 0.15811336 0.19604956 -0.57446986 -0.049458005 -0.31303954
6551 0.42662755 -0.53477734 0.11086763 -1.0012913 -0.6837401 0.55579954 -0.23632 0.792637 -0.20170721 -0.2065543 -0.3274358 -0.75422496 0.6024639 0.38934544 0.84197915 0.41506425 0.27396393 0.6921662 0.49685487 0.6408788 0.288958 0.5081831 1.0549463 -0.0681848 0.14170744 -0.9387233 -1.5646753 -0.67214483 0.28451583 -0.36057678 0.78920585 -1.1551601
2187 0.0871307 -0.79212844 -0.27848193 0.64497507 -0.5215833 0.2638557 -0.43821374 -0.34489277 -0.027830658 -0.80122954 -0.8550105 0.027227253 0.9461662 0.6552631 1.4980514 0.9255595 -0.4668101 0.6500394 -0.5739874 -0.09246513 -0.13777454 0.7802201 0.1937867 -0.4060013 0.4892961 0.38981423 0.5953987 0.15076493 1.1933703 -0.22617312 0.097279415 -0.53849757
4859 0.34575468 0.4765207 0.29790208 -1.5251166 0.12932664 1.2020375 0.76721156 -0.7318331 -0.9439035 1.7041007 -0.6144294 -0.81845266 0.8311031 -0.081876166 -0.38596398 0.39588726 -1.1316687 -0.20545156 -0.7659801 0.63488793 -0.77059025 0.941152 -1.6080853 -1.6473653 -0.07247372 -1.9443395 -0.74098766 0.49610955 1.0329195 -0.2720847 0.3902594 -1.0958257
7207 0.2165446 -0.13602066 0.08537759 -0.035617225 -1.3670633 0.1150045 1.1707263 0.9962178 1.270608 0.22827862 -0.29633582 -0.37794623 0.2373569 0.54104316 0.2699578 0.35845777 0.14233683 -1.4253554 0.32137313 0.71510136 0.2995082 0.15378205 -0.22102624 0.12119657 -0.115389384 -1.4075155 -0.6742086 0.018441925 2.346799 -0.10569853 -0.0039059191 1.4527832
7283 0.149779 0.5840304 0.23873949 -0.47225723 0.38814875 -0.22684178 0.4042574 -0.071256146 1.1997138 -0.5062616 0.19915004 -0.9394738 -0.391408 0.2987181 0.30577642 0.16348553 -0.41968432 -0.5087824 0.66460013 0.39650375 -0.08843518 1.1627723 0.35207412 0.51108 0.16799147 -0.9023737 -0.170471 0.1639973 0.43501276 -0.37593555 1.1199751 0.07561982
6386 -0.35935783 -1.1494806 0.5212439 0.40871853 0.5404259 0.89820373 0.505845 -0.26597634 0.9869032 -0.41765726 -0.35810274 -1.4283718 0.019189341 0.11264515 0.48361292 0.09402786 -0.19466572 -0.37595585 -0.16914517 -0.16241701 0.7292928 0.31178537 -0.4638835 -0.3907203 -0.3308463 -1.4344314 -0.9637557 0.3186017 0.38784686 0.20036328 1.358648 0.9917936
7174 -0.59644794 -0.018487073 -0.06797112 -0.8183571 0.9404808 0.49924335 0.19353619 -0.48550713 1.1899672 -1.183052 -0.3855434 -0.24700351 0.9584859 -0.018728517 -0.15394309 -0.027378583 -1.1263137 0.36450988 0.14125198 0.5751464 -0.95165664 0.9369895 1.0694544 -1.071498 0.17316711 0.28521967 -0.17648606 -0.1215723 0.14336914 -1.1861708 0.7381407 -0.52270603
3314 -0.28573373 -0.037169803 1.1221915 -0.015068909 0.15715663 0.10681202 0.72005504 0.124916196 0.10974655 -0.38942236 0.48987558 0.83361804 -0.1486676 0.4253286 1.4596894 1.2347353 0.4315968 -0.06508202 0.38144082 0.49190325 -0.48657557 1.2057416 0.011101313 -0.2967465 -0.5513553 -0.44141996 0.016923523 0.2096424 0.079752445 -1.2816712 0.7222947 0.10927217
3087 0.14427733 -0.0615681 0.557896 -0.5492736 -0.9350836 0.024081374 0.56112516 0.5366449 0.62575376 -0.2720318 -1.5977483 -0.38749075 0.83048284 -0.47781453 -0.07389048 1.4983122 -0.42419487 -0.8387226 0.8283717 1.284879 -0.3939218 1.3255103 0.41528872 0.008911325 0.13211052 -0.31592977 -0.5607924 -0.58303624 0.035875842 -1.6951298 -1.5041068 -0.62884116
6812 -0.77549535 -0.8822354 -0.3808575 0.4354749 -0.78921914 0.19610395 -0.047489084 -0.13154815 0.08852804 -0.82303387 0.13875626 -1.4101915 -0.009200825 -0.23384108 0.9890028 -0.30138883 0.6127389 0.4363867 -1.0569432 1.8082035 0.48801482 0.98519444 0.6656241 -0.30486315 0.9800419 0.004479199 0.64479125 -0.27079612 0.52277243 -0.725459 -0.029727804 -0.499889
5560 0.4432466 0.24937558 0.09349638 0.37415412 0.09210686 0.9857147 1.225083 0.2198308 1.5081995 -0.6522949 0.49524513 -1.0538592 0.5440334 0.25286192 0.40489027 -0.017531615 -0.412767 -0.17047627 -0.04596906 0.001237387 0.42951956 1.1834247 0.09207321 0.28667527 -0.12468051 -0.39057943 -0.52149004 -0.8258022 0.45597434 -0.3864609 0.03370395 -0.039805975
6961 0.7310174 0.3083723 -0.6830525 1.0873744 0.5923025 -0.31367075 0.1682033 -0.4440544 0.58663815 -0.67913485 -0.06126889 -0.1964069 1.0704168 -0.5710467 -0.1396234 1.2346326 -0.58038086 0.7471685 0.5973815 1.3834685 -0.52167505 0.6328694 0.21969983 -0.9597089 -0.11020426 -0.8693879 -1.0073708 0.24372017 0.29129922 -0.52914673 -0.41583753 0.7542302
361 0.18598069 -0.40221483 0.69592416 0.05267169 0.41022253 -0.5360892 0.21705543 0.38343707 1.0799489 -0.16527385 0.01963004 -0.40592033 0.10967583 0.16295694 0.38744134 0.79835325 0.6728514 -0.043012023 0.38082203 0.62358356 0.40667075 0.82523423 0.37932903 -0.11611513 0.28327167 -1.4510493 -0.75939196 0.012439975 -0.27800703 -0.20432894 0.6953783 -0.4671138
7223 0.35632142 -0.16252169 0.20877391 0.056038864 -1.6039897 -0.25774977 0.20510423 -0.4301312 0.35441253 -0.23842543 -0.1393072 -1.5068601 0.52411306 -0.45283952 0.1467356 -0.07807109 0.6258714 0.15385447 -0.4861255 0.9695799 0.0033274272 0.84630513 0.48183197 1.3767208 0.6985102 -1.2081596 -0.21426965 -0.1982726 0.25299445 -0.36684498 0.3490382 0.39419204
7479 2.0267472 -0.56077826 -0.41251183 0.23168449 -1.5846089 1.7928632 -0.5242872 -0.36713347 0.77310616 0.80308324 -1.2095443 0.8217509 0.426164 0.96605766 0.76911527 -0.09313444 -0.45346668 -0.086922534 -1.4210079 0.83694434 -1.0883293 0.43013838 -1.1533455 -0.047622617 1.02951 -0.30293506 -0.7927074 -1.144878 0.3972986 -1.9760679 0.5056316 1.0427656
7190 -0.5214487 0.22985241 -0.9548556 -0.5372768 0.9167478 0.052168977 -0.19899954 0.20738555 0.46863535 -0.3641991 0.14904293 -0.9073284 0.45698678 -1.2051772 0.7601585 0.14129299 -0.27035537 -0.13088019 -0.2135983 0.3534343 -0.53564614 0.7187096 0.6015734 0.033726834 -0.39712346 -1.6283293 -1.1040382 -0.5767364 0.07425366 -1.009603 0.30931953 0.5447073
3543 -0.07955371 0.84262866 -0.034644336 0.6967084 -0.28023696 -0.23804952 0.30833313 0.21584849 0.008189132 0.14957343 -0.51998687 0.40415654 1.7590041 0.4254973 0.97702473 0.21238802 -0.3084701 0.7731738 -0.5888054 0.3281123 -0.97048223 1.2633408 -0.5453892 -1.4146577 0.58045614 0.20777561 -0.8527066 -1.155886 0.3505379 -0.2739022 0.27541533 0.515637
887 0.5385222 0.6390246 0.25414157 0.10075325 -0.2038207 -0.43057278 0.7598945 0.015398477 0.6036882 -0.21992397 -0.4409616 0.4669667 0.6741223 -0.10968292 0.57955986 -0.0013399521 -1.1917694 0.6802275 -0.32103026 0.81948996 -0.55453545 0.6724201 0.054055594 -0.29775563 0.8421024 0.22347601 -0.14060986 -0.80670744 0.23908655 -0.6958748 -0.14850229 0.7806636
2970 0.27213344 -0.026386056 0.4476732 -0.44764343 0.6397784 0.1683246 0.5256323 0.0037382364 1.2098026 0.00636877 -0.024852874 -0.4253626 -0.10683894 -0.3280991 -0.5315913 0.8406631 -0.67273694 0.09187751 0.80665076 1.2864431 1.0692756 0.9445295 0.65116197 0.47877502 0.028715838 -0.89307743 -0.53408873 -0.43095082 -0.055511866 -0.3073626 0.819687 -0.44818604
6108 0.8611299 0.38530847 -0.10722086 1.2442174 0.31513977 0.1615526 -0.084637165 -0.15911657 -0.41556734 0.39954314 -0.3403415 0.76702696 1.2474568 0.36776948 1.2363007 0.86237806 -0.21182677 -0.43828782 0.014620974 0.9524773 0.32471853 0.35336837 -0.39232567 -1.5102814 1.1246921 -0.37381747 -0.5617254 0.0024481937 0.51812834 -1.2981794 0.9039242 -0.9159438
6879 -0.10804766 0.8019393 0.7556365 -0.10119568 -0.13088414 0.5516022 1.4033414 -0.6649184 1.2795796 0.11608802 0.55262744 0.34800407 0.16700353 0.055734113 -0.03460202 0.6003831 -0.17907445 -0.9491254 -0.5143873 0.7465201 0.06628795 0.5528485 -0.018535545 -1.1434957 -0.12999798 -0.039334357 -0.71148646 0.10291327 -0.46632355 -0.57922935 0.7302639 0.22641508
2330 -1.0963424 0.46242982 -0.71729463 0.86874753 -0.9329588 0.38625002 -0.4339069 0.13221069 -0.5301643 -0.84270597 0.20457166 -0.3297389 -0.15102166 -1.1086493 1.5802435 0.30623952 0.66471153 0.2316838 -0.9886303 1.1450697 -0.4467465 1.3181179 0.3487767 -0.34813592 0.8484482 0.25739044 0.51324415 -0.35282663 0.25217858 -1.509778 0.88476604 0.15565717
5132 0.56646997 0.5398152 1.2661264 -0.5711727 -0.7496863 0.15622137 0.72091633 0.83092636 0.29223403 -0.6949954 0.659804 -0.57522047 0.22639838 -0.20171623 1.2525185 0.48934713 -0.2980221 -1.3248633 -0.6471108 0.8834574 1.7210652 -0.23444201 0.057991516 -0.34641674 -0.51218426 -1.5214773 -1.4130948 -0.6215543 1.6450663 0.052135237 -0.15284628 0.6105323
485 -0.29820755 0.6401433 -0.15548523 -0.7572831 -0.46024337 0.69025016 -2.002527 1.7085557 -0.21799359 -0.09232947 -0.116333984 -0.22092016 0.5284473 -0.7655455 -0.3162074 -0.0019930343 -1.0052893 0.5901004 -0.9113146 0.19500028 0.21901657 2.1280868 -0.7371721 0.20760134 -0.14349711 0.0047140727 -0.46067214 -0.31795296 0.94193316 -1.3648589 0.4182136 0.08177325
5026 -0.15475935 -0.52062273 0.71975756 0.48505953 -0.26132402 -0.2624701 -0.4036617 -0.008925937 0.62104994 -0.0461392 0.3482874 -1.5234356 -0.3371343 -1.3052135 1.1469815 0.31065926 -0.9415647 -0.04695852 -0.072449386 1.2184008 0.878461 0.798896 0.35972357 -0.60300744 0.39756766 -1.8964831 0.46251616 -1.2496037 0.17180537 -0.6466706 -0.14965546 1.1722901
3034 0.06545954 0.42117622 0.41073897 -0.5154958 -0.0028774897 0.28106913 0.6046967 -0.011978306 0.6979641 0.5339909 -0.16878285 -1.3640625 0.6183451 0.062386386 0.10033058 0.4251633 -0.41770703 0.44477135 0.1914891 0.83644265 0.6693447 0.9312165 1.0547138 0.78460836 0.3615242 -1.1720815 -0.3605374 -0.9615023 -0.39588213 -0.8830934 0.7962776 0.032911208
3604 -0.41724166 -0.6884087 -0.13763823 -0.5671877 0.6060191 -1.0779448 -0.6968911 0.5893015 0.98737746 0.024928108 -0.5254825 1.5437893 0.47529078 1.031479 0.8831319 0.33728206 -0.074184574 1.1256663 -0.64485157 0.72578055 0.13928106 1.8740373 -0.037450913 -1.0333221 -0.34969726 -0.51559687 -0.699834 0.18074161 1.5716997 0.6113273 0.2549932 0.08381065
1681 -0.4577691 -0.9588532 0.3562731 0.67619866 0.23963423 0.7165992 0.26146576 -0.65833974 -0.6758035 -0.502963 -0.948993 -0.41553703 1.69819 -0.31113532 0.5661888 1.1147915 -0.00086851284 -0.022649424 -0.1957518 1.8318801 0.3287248 -0.028863065 -0.86371386 -0.3075775 0.05900964 0.31728 0.19820467 0.034262985 -0.63474977 -0.8206513 1.0488769 0.9875087
5651 0.36776188 -0.74617445 0.21579623 0.3666778 -0.08839553 0.0233887 -0.23078892 -0.006912604 -0.8689472 -0.17719351 -0.9220867 -0.29976597 0.79795456 0.88935214 1.5695009 1.3493693 0.04162923 -0.103609644 -0.05841213 0.19938622 0.108430885 0.03385624 -0.5451901 -0.546144 0.8667211 0.76678807 -0.08658076 -0.29211086 0.45630166 -1.1140213 1.0772061 0.065802395
5882 -0.3738174 -0.1071303 -0.4220986 0.013003167 -1.470215 0.487486 -0.29503933 -0.48061258 0.34127736 -0.8419092 -0.19898564 0.3541699 0.7426143 -0.25128347 0.86867744 0.6423102 0.93215895 -0.88411355 -0.7558698 0.5400074 -0.8850439 0.3473302 -0.033559125 0.11196842 -0.40698066 -0.053899083 0.33851856 0.6031965 -0.16624454 -0.5050672 1.4459224 -0.46051687
7124 -0.1738613 0.15948239 0.2860357 -0.29126644 -0.806073 -0.47622675 0.11134362 0.09241737 0.8751967 -0.78646743 -0.6019173 -1.3079331 0.38330886 -0.09735453 -0.036724012 0.66922903 0.0141474325 -0.63550186 0.04514113 1.1621524 -0.4047838 1.3270797 0.8788556 -0.34619558 0.2422703 -0.37591603 -0.13837557 -1.1288123 -0.12843616 -0.29608458 -0.61230946 -0.36664152
5294 0.61826456 -1.2748784 0.26495838 -1.3660662 -1.5555832 -0.17634246 -0.34040353 -1.3072823 0.599142 -0.6082168 0.36627632 -0.51303995 0.3134705 -0.96074 0.28168303 0.25924897 1.0236421 -1.0689541 -1.3755109 -0.7157702 0.16326973 0.9968651 -0.9785514 0.7776343 -0.19098896 -0.26788774 -0.08151453 -0.121263444 0.64260566 -1.0344318 1.0741762 0.72099507
5790 1.5391995 0.77486354 -0.80043775 -0.8785871 -1.0224258 1.6502024 -1.1464555 -1.1272086 2.2268414 1.0557879 -1.187213 1.1784586 0.3250022 -0.51335394 -0.42171264 -0.45817548 -0.15114307 -0.36213094 -1.8751913 1.3490344 -2.1258967 1.8928202 -0.8369846 -0.43242824 0.0627212 0.59716576 -0.23528346 -1.2128519 0.92431957 -2.332038 0.5006623 0.30526492
5769 -0.5023849 0.07012224 -0.8316299 -0.33791697 -0.44380674 0.22002243 -0.669089 0.5836575 1.0354077 -1.116442 -0.9593512 -0.92465425 1.1680378 0.837993 1.233894 -0.008882615 -0.4490044 -1.1463442 -0.15759602 0.2942345 -0.7521391 0.62329787 -0.102240264 0.41390562 -0.72929287 -0.77350235 0.7178069 0.62570184 0.77903676 -1.0883174 0.48450404 -0.2626168
1699 -0.34365812 -0.25390312 0.9382652 -0.8001264 0.3516148 0.056132864 0.35778558 -0.5728904 0.7483198 -0.48602262 0.17072162 -1.3756566 -0.35486475 0.7349867 0.14392567 0.03025007 0.7173134 -0.49152339 0.4764625 0.88961923 0.3845315 1.4966975 0.45016053 -0.110311605 0.100916475 -1.1954112 -0.4202771 -0.16135545 0.63181376 -0.10924592 0.54089224 -0.34504628
7560 -0.6291076 0.5994595 -0.33140856 -0.56671935 0.14062044 -0.04656215 -0.06648561 -1.9713045 0.74100095 -1.2428128 0.18068838 1.5400344 -0.23100835 -0.73849005 0.6952803 0.120423496 0.07302051 -0.24674748 0.56283236 1.6603094 0.5003178 1.7148871 0.16988973 -0.53158 0.90636414 1.2137971 -2.0124443 -0.32224703 0.49236462 0.17220348 1.1225673 0.04597952
504 0.319084 0.89056087 0.3223777 -1.1793019 -0.09319906 0.054181658 -0.0060358937 -0.29500794 0.44189864 0.24059156 0.13288414 0.9506399 0.40401664 -0.053769026 1.2145598 0.13149542 -0.7080555 -0.104412526 0.21382175 1.3269846 -0.52357024 0.31668732 1.2988487 -0.6672516 0.1813502 -1.5440072 0.17016342 0.46036565 -0.16817316 -1.4674854 0.8813224 -0.035407767
5981 -0.08128425 -0.16462076 -0.032966997 0.64550316 -1.4064379 0.63526016 -0.25887936 -0.29285342 -0.3851431 -0.24595214 -0.23444173 -0.1884759 -0.2542356 -0.46247825 1.861576 0.5415288 0.151392 0.8756435 0.03880097 0.84336346 -0.28266817 1.4369949 0.27773347 0.36916408 0.0027032034 0.17736603 0.6782602 0.091601595 0.6240824 -0.028033271 0.4835848 0.028345235
836 0.1158904 0.09776574 0.41316777 -0.035615496 0.4573724 0.36749998 0.8391932 0.21235718 1.0503534 -0.1410624 -0.012775102 -1.2385836 0.31273815 0.009403929 0.54132766 -0.07904684 -0.56015706 -0.34298244 -0.17923793 0.39327142 0.23027183 0.69382435 0.197473 0.70869374 0.08008959 -1.2493563 -0.8336027 -0.3209878 0.23666625 0.09324462 0.39623073 0.20974708
5722 -0.32277906 -0.4528628 0.6038243 0.008699986 -0.46715543 0.6352435 -0.105112866 -0.31066683 0.4145072 0.39841172 1.1253873 0.20911226 1.5896797 -1.2818488 0.2330858 0.7586378 -0.53737295 0.5805897 -0.108240716 1.4823531 -1.1756493 -0.37743747 -0.7103774 0.30071452 -0.2338381 -0.48918903 -0.3752782 0.23601007 2.0043187 -0.80666703 0.69987774 -0.6449744
3362 0.6096765 -1.2577755 0.10883327 -0.1869494 -0.70212334 -0.27058476 -0.53814274 0.57593733 -0.96907425 -0.6300975 0.02899683 -1.0092785 0.76172507 -0.74965805 0.70560324 0.9087893 0.21170236 0.7826172 0.7074247 0.7268975 -0.17386006 0.09288087 0.2000981 -0.932066 -0.10397898 0.27306166 -1.1713107 -0.023248494 0.95910287 -0.25413874 0.9745065 -0.12016899
5030 -0.12560734 -0.20971671 -1.0063174 -0.37101758 -0.9412483 0.58461124 -0.70890796 -0.20455861 0.6556493 -0.2922382 0.058082756 -1.1500652 -0.08279399 -0.029774513 0.10638179 1.1627423 -1.1991951 1.4728918 -0.61488724 0.57273793 -0.49669188 1.1077464 -0.2749521 -1.9973443 -0.91295797 -0.29687223 -1.4291514 -0.03465315 -0.38602108 -0.2307942 -0.82456875 1.2877456
6870 1.0382854 0.17942038 -0.5609636 0.69253904 -0.57443726 0.46601814 -0.3571383 -1.0551252 -0.06537259 0.25903147 -1.9798903 -1.4926516 -1.0416583 -0.7015557 1.1067545 1.0680921 -1.4155219 1.0949149 -0.7747633 1.6567324 -0.29597425 0.09026561 -0.8370747 -0.35881686 0.4592248 -0.5769825 -0.6372016 0.017719189 0.035164256 0.836656 1.5536656 -0.0033734136
5636 -0.7347367 -0.057768915 -0.21421823 0.11491038 -0.5479484 0.26383644 -0.10872644 0.5964319 0.024632014 -0.38181785 0.32636625 -0.111311145 0.04468814 -0.020746494 1.3748119 0.24070908 -0.41872582 1.5052443 -1.0613389 -0.1145454 0.013572103 0.53437495 -1.1082048 -0.89612234 0.30665058 -1.1273885 -0.19919488 -0.4335112 0.019945983 -0.061295055 0.922363 0.029830515
2280 -0.17843352 0.21962634 -0.7435305 -0.6673968 -0.22219633 -0.5745664 0.18836866 -0.88881785 -0.07855167 0.5973286 0.6987348 -0.11884875 0.033494916 0.35342813 0.93010324 0.6131156 -0.79232526 -0.12218427 0.40865496 -0.15976885 0.2584398 1.3855615 -0.5991127 -1.0901203 0.4309958 0.112974614 -0.004724877 -0.5838685 0.8667354 -0.11342758 0.17986359 0.28111604
3305 1.1955723 0.42108414 0.69897455 0.27399954 -0.9061742 1.0268354 0.113162614 -1.7374953 1.2012753 0.8484548 0.10003207 -0.3368152 0.080465145 0.96951395 0.14528872 0.6326473 -0.7028791 -0.98950386 -0.80661273 0.12584877 0.1478264 0.67260337 -0.24250978 -0.3127485 -0.22498038 0.8468168 -0.23555058 -0.09331272 0.107535996 -0.73050857 1.2805498 0.104637526
4422 0.00074448215 0.6461635 0.09114442 0.21684717 -0.63425624 0.75329465 1.317618 0.37504482 1.4707141 -0.52917355 0.21500957 -1.6413512 0.48739174 0.36729458 0.83438605 0.016762536 0.083782025 -1.0524703 -1.1245459 0.13959263 0.05945215 0.6668947 0.12717082 -0.0615255 0.2183511 -0.5728821 0.05302307 -0.7641592 0.7082104 -0.12736434 0.14642325 0.3824721
6230 0.3744873 -1.2749026 -0.055248853 0.577817 -1.5169517 -0.089755185 -0.37151754 -0.73944724 0.604538 -1.0190207 -0.81899107 0.24111143 0.49792767 1.4428917 1.0937263 1.0674601 -0.8714956 -0.056530654 -0.14607316 0.13112125 0.46494028 -0.25038823 -0.29467174 -0.6244315 0.29610023 0.040410984 -0.8895203 0.1896248 1.0904828 0.016907454 -0.19722751 -0.2978215
5811 0.020088077 0.1058071 0.20507792 0.8540099 -1.5656179 0.2521474 -1.0942546 0.00944543 0.7395403 0.47033796 -0.5011004 -0.8906636 -0.42702502 -0.469973 1.6756378 0.72153485 -0.6873066 0.08525733 0.09201726 0.17711692 -0.19979791 0.8585942 -0.4544707 -0.15648703 1.1439819 -0.3334405 0.076994956 -0.17800936 0.35661566 -0.08215961 0.34862486 -0.6759332
2797 0.5737959 -0.4816188 1.1632825 -0.8216263 -0.86663127 -0.2710939 0.13993695 -0.29340586 0.8641574 -1.0093104 -0.8005019 -1.5728368 0.49156752 -0.31260422 0.15057866 0.17236349 -1.0475076 -1.1792369 -0.20373121 0.9920493 0.027336713 0.950163 0.5125019 -0.5308735 0.49746838 -0.70311403 0.36126763 -0.8301884 0.5145012 -0.23704477 -0.83457464 -0.35481563
6774 -0.37325853 -0.010833168 -0.18368764 -0.77777 -1.2683228 -0.98614126 -1.1623098 0.8078087 1.1942528 -0.40800092 -1.6015321 0.596475 0.7312214 0.20243469 -0.5425924 1.5540229 1.0556811 -0.43210694 -0.8500122 0.07700093 -1.4868176 1.4659488 -0.8504009 -0.09136189 2.3635275 0.56789243 -0.69488853 0.023644388 2.9365366 0.015895039 1.2540895 0.39471826
6434 0.28027374 -1.4413736 0.41868246 0.49731696 -0.13120306 0.5918729 -0.22165033 0.810592 0.45435968 -1.5290003 -0.20142001 0.5413128 -0.5038391 1.2050046 0.95536155 1.0162767 -1.0383205 -0.5619124 0.5641931 1.070508 0.12880965 0.4488726 -0.33504143 -0.24861382 0.575747 -0.98280436 -0.5944875 0.8057264 0.6279324 -0.2794645 0.15193693 0.42207968
6542 -1.0205245 -0.7270367 0.71166533 0.7154065 -0.83453566 0.534234 -0.039409876 -0.9371316 0.19802155 0.1605123 0.19083732 0.19987418 1.6596802 1.2049037 1.3369517 0.14050305 -1.889743 -1.4747733 -0.7778898 0.8093731 0.2132728 1.5386305 -0.06253988 -0.68757075 0.6941665 -0.4651253 0.88427466 1.0410815 0.17944099 0.33011568 0.62940913 0.40217787
5712 0.2905452 -0.3263608 0.47297773 0.78079325 -0.6386046 -0.47117922 -1.0534621 -0.48947906 -0.015475111 -0.86842334 0.25533345 -0.5329104 1.2683156 -0.37248638 0.11789073 0.45485777 -0.6419274 0.32722223 1.0736575 1.7880598 0.24630308 0.10048635 0.51872206 -0.5585569 0.08385614 -0.26030037 -0.35380057 -0.2896144 0.72971636 -0.24889308 0.2606932 0.5728771
4337 -0.27346992 -0.44615582 -0.8064055 -0.12511264 -0.7429662 0.41798997 -0.11800705 -0.6740025 0.7910225 -1.2227743 -0.065148234 -0.25930798 -1.3496524 0.7389433 -0.034125466 0.8666058 -1.3272614 -0.112886295 -0.69525474 1.0552089 0.010980184 1.1686974 1.2711344 0.8611998 -0.779366 0.09611225 -0.29487783 1.5185926 1.814081 -0.68972474 1.0110458 -0.9486651
1995 -0.6170217 -0.3294601 -0.13627438 -0.8797332 -1.1594347 0.287881 0.62478024 -0.12995934 0.29698604 -0.42026225 0.053196426 0.5927554 -0.28778028 -0.29847932 -0.29345328 1.089551 -0.2675304 -0.08036674 -1.0265396 0.52170026 0.22560409 0.8385302 0.7127921 -0.23358214 -0.4567267 0.2517417 0.012334404 1.520074 0.7579501 -0.10022722 1.3318404 -0.5341462
87 -0.7335931 0.11486475 -0.35143512 -0.3567455 -0.81936455 -1.1090368 -0.3115067 -0.39237002 0.80434895 -1.3854204 -1.0833733 -0.47880718 0.5225688 0.30145067 -0.48634517 0.4246842 -0.40102562 -1.2966058 -1.3105675 0.9053989 0.2631987 1.4405252 0.1971824 0.054362986 0.40422782 -0.7004609 -0.44562608 -0.3857639 -1.0089244 -0.5672653 0.08757824 -0.57821417
6037 -0.9817557 0.00031680765 -0.1327309 -0.87977976 -0.023964448 -1.3902173 -2.0252724 -0.08871957 2.3195724 1.1758505 -0.97293156 0.17636858 0.8728207 -0.27727354 0.42733663 -0.39220518 -1.4358342 -0.61593056 0.8552191 1.9059625 0.5787267 -0.036459945 -1.070503 0.2912356 -0.011181087 0.21685143 -2.5729806 0.62544113 2.0573394 -0.83413154 1.9070505 -0.94671625
5271 -0.5708617 0.9508736 0.11460513 -0.18696629 -0.48273692 -0.14885342 1.2743615 0.9862725 -0.028626645 0.25321382 -1.9080479 0.006521817 -0.5399587 1.0399932 0.950304 -0.06079316 -0.51563376 0.6112546 -1.0796458 1.481164 0.35210323 1.0799236 -0.44452712 -0.17300664 -0.52797097 0.7008678 0.5956647 -0.806868 0.7283753 -1.5923287 1.1695199 0.7941207
6868 -0.21017656 0.18506767 -0.065939814 0.9630998 0.4057809 0.46885753 1.6511858 -0.35655123 1.8431932 0.024415575 -0.11422391 -0.7916579 1.0051713 0.39977053 0.84099054 -0.4326269 -0.9531634 -0.69538474 -1.3898417 0.035764158 0.21264459 1.09354 -0.36035174 1.089526 0.08186293 -1.4719328 -0.068269774 -0.56114006 0.7156004 -0.2676161 0.55045754 -0.09201438
3544 -0.13748428 -0.6406348 -0.54681736 -0.081534736 0.2540805 -0.45815006 -0.16568354 0.3307304 0.3418813 -0.8601391 -0.40629882 -0.38202038 -0.39074814 0.04714964 1.2952206 0.41690046 0.17197324 0.4349875 -0.62575096 -0.11270738 -0.017457984 0.7353086 0.016347948 -1.2527981 0.4401813 -0.22923315 0.15744229 0.39786 -0.12256168 -1.1864736 0.63920224 -0.6179593
1672 -0.04267487 -0.44744045 0.4004994 1.3403943 -0.7410132 0.9708276 -0.23678175 -0.7495732 0.66718704 -0.26886377 0.2330325 -0.6638311 0.516214 0.13573585 0.19178177 -0.21920042 -0.4021513 0.6460217 -0.36106834 1.0606581 -0.19628708 0.55534106 0.13201226 0.45843187 0.9756213 0.10125482 -0.85166264 0.599577 0.39261293 -0.6294441 0.3237125 -0.12605238
7110 -0.20559493 0.83755136 -0.5184578 0.2005196 1.1386818 0.5122702 -0.5671124 -0.8675425 -0.20167862 0.1998746 -0.7910565 -0.019452037 -0.6558414 -0.1623917 -0.09928341 0.65057486 -1.0583665 -0.3693221 -1.2426807 1.7491297 -0.04423366 0.6633108 -1.4640582 -0.6018252 0.7851983 0.2620536 0.12783849 1.3504238 2.3742623 -0.9831824 0.6562969 0.33721036
3976 -0.67201394 -0.28579772 -0.24820405 -0.2878694 -0.16325763 -0.6970962 0.51869273 0.19212075 1.0034494 -0.06920977 -0.77212405 -1.5949209 -0.09437869 -0.24452998 -0.08890623 0.22462663 0.68984944 -0.6110076 -0.73506635 0.49727497 0.13938409 0.85155624 0.384898 -0.20326601 0.15965526 -1.0760828 -0.9883562 -0.25678125 0.7146684 -0.40950575 -0.5473318 0.5493015
4279 -0.11625322 0.56454986 1.1204472 0.29538578 -0.2175596 0.17368422 0.7097627 0.49457264 0.98211944 -0.3610969 -0.050507892 -0.9805455 -0.22454219 0.18689123 0.6812893 0.35417077 1.0643044 -0.2863445 0.09028452 0.90981615 1.0265708 0.8053005 0.99590266 0.40357432 0.8183145 -1.3582568 -0.80802494 0.18094537 1.0165434 -0.811843 1.009101 -0.19452107
5349 0.40814245 1.8279352 0.30594814 -1.7167866 -1.2446514 1.3863945 -2.2442317 0.8534436 1.5833184 0.22508994 0.57447886 -0.4235738 0.29676417 -0.5419024 -0.5665972 -0.875015 -0.25828663 0.3733079 -0.19653375 0.24261892 -0.030197645 1.9696617 -0.3887527 -0.34177706 0.3427766 0.12366926 -0.6529214 -0.25985804 0.9485918 -1.5515924 1.6713448 0.34225017
4201 0.47498766 0.39798602 -1.4265049 -0.18453608 -0.6342868 -0.6245975 0.07008323 0.30679548 1.2344165 -0.12254677 -0.79943234 -0.74793816 1.0124629 -0.16590631 0.979056 0.18132308 -0.58160925 0.019712549 0.7470953 0.54445237 -0.87430674 1.3907841 1.14259 0.39921457 -1.2887272 -0.3548076 0.3905005 0.0032626954 0.9519866 -0.9969044 0.28719756 0.55513555
1967 1.9781439 0.95844907 -0.78481615 -0.051125582 -0.3813003 0.7916584 0.26667967 -1.393289 1.6029799 -0.38609192 -0.2564677 1.4870995 0.0372255 0.18871637 0.26547813 -1.5082253 -0.49186978 -0.036514007 -2.1812828 0.7503987 -1.0910188 3.271063 -0.4990175 -0.331411 -0.588189 0.030178541 0.115584575 -1.2950828 1.5448859 -2.0696712 0.5812615 -1.4727705
4146 -0.046550732 -0.6410262 1.0078593 -0.05236965 -0.8622412 0.4078884 0.059792385 -0.256647 -0.318781 -0.39391482 0.6113132 -9.163029e-05 -0.28259754 -0.38256866 1.4237918 0.57426846 -0.053759508 0.97501487 0.36613777 0.71803063 -0.2924609 1.7749586 0.028374957 -0.9232467 -0.48290056 0.37019527 0.32561955 0.1819125 0.2394032 -0.09734083 0.13962936 0.8484932
7518 1.0949175 -0.08738037 0.37653857 -0.6740442 -0.03473412 -0.25972763 0.06270706 0.6858614 1.1846 0.19330844 0.56046426 -1.4329939 0.079439566 1.0051279 0.28361097 1.2079327 0.7179199 0.54604363 0.17881884 0.49435148 0.075923346 1.3938118 0.6794156 -0.54211783 0.6104409 -0.5387373 -1.2164286 -0.23473594 -0.1378256 -0.30317208 0.82979584 -1.2912152
3304 0.6249495 -1.4785633 0.9990426 -0.9511593 -0.10574599 0.57668287 -0.16050096 -0.8403061 -0.09236633 -0.121680565 0.6623477 -0.54291797 -0.7664267 -1.1064806 0.829262 0.30397654 -0.09115575 0.004975118 -0.06535718 0.027984066 0.38562652 1.838951 -0.35440415 -0.7372606 -0.092410475 -0.3668728 0.4858098 0.7060846 0.032186296 -0.88326734 0.33209565 0.10225111
851 -0.10689802 -0.37685943 0.007925662 -0.57508224 0.2500957 -0.45282915 -0.21865244 -0.019409385 0.16048299 -1.5727342 0.2778335 -0.3987793 0.26127273 0.06918168 1.2432142 -0.59515727 1.3955382 -0.71472657 -0.90065205 0.26754636 0.12274168 0.8493076 -0.48770106 -1.8387177 1.3635619 -0.9587767 0.2435925 -0.057118226 0.39008847 -1.1648291 0.29352126 0.14230761
7515 1.5060686 -1.143488 1.2476676 -0.24301955 0.27761754 1.362469 -2.3211906 0.36382136 2.2644606 0.30679014 -0.59145516 1.2290905 -0.23384373 0.40874916 -0.16492297 0.94842476 -0.39302254 0.3054718 0.10713636 1.1313434 0.39415196 1.9523641 -0.6914661 0.7600013 -0.39544138 -1.4364642 0.2332158 -0.62893665 2.7195616 -0.5775265 -0.45889446 0.92569864
432 -0.30435303 -0.37889093 1.0827173 0.14617734 -0.27240694 0.5356237 0.6857496 0.875127 1.3148487 -0.12731376 0.01919674 -0.70141745 0.14999062 0.32203552 0.92859787 -0.10247893 0.8662947 -0.6594874 0.17154993 0.83661354 1.0657911 0.48376626 0.052523524 -0.55097836 0.12840495 -1.390672 -1.2320994 0.3893067 0.32632154 0.07075829 0.54441583 0.33873302
1548 -0.15366735 -0.29728734 1.0363393 -0.8415849 0.17056006 0.9059019 0.093509436 0.30336413 -0.16136537 -0.030631078 -0.07957973 -1.4793907 0.12485329 -0.8238321 1.1098323 -0.1679247 0.02593666 0.090495005 0.592267 0.14806691 1.2529039 1.6698129 -0.1302057 -0.20975815 0.15685825 -1.077155 0.3133881 0.119117945 0.39323726 -0.5494538 0.28300238 0.4614455
3257 -0.91691726 -1.0233482 0.49510622 0.02015137 -1.0340645 0.3641615 0.08310596 0.13574356 0.9102641 -0.81102866 0.70708156 0.5177009 1.0307035 0.27987728 1.817542 0.35905164 -0.7201631 1.2024349 -0.77940565 -0.15426278 -0.32369456 1.0285584 -1.0673653 -0.73133737 0.57437766 0.9024988 0.49588627 -0.10594694 1.6801631 -0.5921514 -0.16562814 0.38830453
6917 0.5036008 0.042471852 -0.19794698 -0.5191935 -0.66475827 -0.042185932 0.2287611 0.6759717 0.41931444 -0.6485469 -0.96160364 1.2312884 0.22254968 -0.3259384 1.7225859 0.5393182 -1.7912521 1.2585723 -0.73631674 1.3326501 -0.1368725 0.22568789 0.031357225 0.6648654 1.3391134 0.095654175 0.12941284 -0.6632817 1.270074 -1.2455763 -0.56953114 0.69557536
470 0.2908177 0.9325611 -0.9385182 -0.24677673 -1.1501696 -0.17369181 0.682666 -0.32056412 -0.85901266 -0.32608873 -0.018741654 0.48589203 -0.76029265 -0.10017244 0.51068133 0.84866214 -1.0721837 0.23619716 -0.05022491 -0.45958737 0.12743388 2.9140425 -0.025628092 -0.59306705 -0.1835016 -0.34079844 0.13766238 -0.90275025 -0.027724799 -0.44633678 0.8228795 0.7617157
7383 -0.73431635 -1.3930533 0.044699334 -0.28617337 -1.0454917 0.6020007 0.6907033 0.04828394 -0.64159733 -0.26925397 -0.0830404 -0.98644567 0.15182124 -0.2817945 -0.21509546 0.074598014 -1.8766272 0.86306965 -0.058844496 1.3730489 0.5614598 1.9994614 -0.97470033 -0.95342284 0.4278835 -0.047915127 -0.07243827 -0.48465833 1.7816789 0.09285795 -1.2557688 2.0182667
4539 -0.6579618 -0.12593877 -1.2110938 0.4425716 -0.10066852 0.113343865 0.5547134 0.69274724 0.12357891 -0.97200245 -0.5660929 -1.1111478 -0.38297865 0.1674248 1.1270489 -0.38532296 0.84446263 0.15491048 -1.258962 0.4026711 0.25321463 1.1323544 0.48834577 -1.6035434 1.0738245 -0.98112905 -0.74046516 0.21373408 0.35626024 -0.8745812 0.385065 -0.5868104
3252 -0.86203265 -0.304653 -0.72452694 -0.49974486 0.63434523 -0.43284073 -0.63952625 0.73154175 -0.05130045 0.22232948 0.7268188 1.0090309 0.7008296 0.42405295 0.7118353 1.0291394 -0.17066553 1.7788289 -0.46544117 0.5586638 0.42571372 1.2381237 -1.4169267 -0.6033729 0.43859667 -1.1139094 -0.6142299 0.5851856 1.6568962 0.10406873 0.77206224 0.42905557
360 0.40822157 -0.88967 -0.49443284 -1.1296419 0.25766453 1.1159543 0.5673068 1.4784318 0.550499 -0.734895 0.78382903 -1.1024189 1.5367159 1.3249998 0.69271076 1.8662478 -2.0170157 1.4501057 -0.19276945 0.6613331 -0.47685668 0.8018376 0.3452185 -1.3713491 -0.64190346 0.49080077 -0.82755125 -0.35316855 0.34649447 0.4942012 0.3900803 0.46254593
5679 1.1338825 1.2410262 0.93966067 0.30690134 -0.87363636 -0.58437645 0.86291677 0.86470824 2.2424912 -0.7662491 -0.15473883 -0.67546934 0.71785444 -0.44632873 0.066360615 0.2103105 -0.120612375 0.24652025 -0.12731683 -0.005346078 -0.21163203 1.6207967 -0.10928807 0.23121323 -0.21893886 0.41960466 -0.49410126 -0.3407764 -0.21919848 -1.4419227 1.0460498 0.88665396
6258 0.03696584 -0.40703812 0.09435035 -0.086712435 -0.2245443 0.76762885 -0.3136518 1.9622042 0.6677517 -0.7787383 -0.07765254 1.030442 0.6419679 -0.41036725 1.5922688 0.9486635 0.033601183 0.7375283 -0.9886609 0.21648449 -0.7010969 2.300247 -1.9970264 -1.4074819 0.27583534 1.2302315 -0.37605807 -0.3445289 1.9413413 0.33041602 0.3506137 1.4467157
6626 -0.619411 1.3911957 0.012930088 -0.4482581 -1.5358295 0.7764973 2.8183634 1.4346362 -0.7582218 -0.0385074 -2.0870786 -0.13996701 -0.30748066 1.714105 0.64902633 0.36158884 0.8254574 0.1961877 -2.0380828 1.8856138 0.9713514 1.365468 -1.4250183 -0.52601683 -0.762804 0.99754167 -0.34274593 1.0407499 1.6498266 -1.6273342 1.1477067 0.29050547
10 -0.4593159 -0.043289203 -0.24116784 1.0900831 -0.056191143 0.7624901 -1.0845311 -0.97697985 0.65604347 -0.7642839 -0.46721357 0.103470944 0.28885713 0.3747486 0.6124132 0.42777732 0.15352973 0.37804607 -0.4450864 1.0497645 -0.7016049 1.346194 0.15607609 0.054635804 0.41942748 1.0236995 -0.026824668 0.2086212 0.48259035 -0.7953287 0.5251918 -0.2836817
4718 0.6799134 0.9969554 0.41008398 1.5008018 -0.113584645 0.85950905 -0.45368552 0.48966458 0.6549978 -0.22066876 -0.5615647 -0.72110593 0.3846771 0.4876603 1.002773 -0.22339575 -1.8066889 1.930835 -1.5861186 3.5122943 0.2482532 1.3945483 -1.0945336 -1.2260343 -0.64330626 -0.72320807 -1.2163492 -1.2629902 0.525532 1.5729972 0.27237934 -1.2201551
4182 0.4745328 0.64823955 -0.043389376 1.8966352 -0.25188223 0.16449286 -0.23829867 0.20337544 -0.80292565 -0.9182002 0.18673725 -0.6267359 1.2669773 0.47659096 1.1067182 0.96271324 -0.6347372 -0.5335631 -0.6511727 0.6643004 -0.33973703 0.86616087 -0.739657 -1.777214 1.2621908 0.50662124 -0.4935781 -0.46452352 0.17823176 -1.544386 1.2999216 -0.4650737
4651 0.53922576 -0.24473308 0.04144559 0.7834619 -1.6636504 0.3285135 -0.86211485 -0.017792303 -0.8331027 -1.2245367 0.5249855 -0.9293772 2.2009497 -0.459392 0.09182779 1.2127563 -0.65578365 0.6246566 0.2926754 1.0515515 0.22380082 -0.10086684 0.0009644477 0.4226993 0.13715227 0.6009932 -1.0847367 0.14365482 0.71275795 -0.86673033 1.021495 0.35528475
6146 -0.5290477 -1.3908579 0.26542085 1.9596274 -0.8122703 1.0131327 0.17989121 -0.1434606 -1.3306662 -0.043540213 -0.9579337 -2.0429738 1.5501732 -0.89954877 0.5251046 1.3494636 -0.29024044 0.8552916 -0.74593276 2.1212327 -0.54978 -0.11949158 -1.2254469 -0.72841257 -0.41109845 -1.0752802 -0.92317605 -0.36154854 -1.0815092 -0.9053312 1.5468956 0.6533556
2099 -0.5684155 -0.5620318 -0.44885007 0.32816964 0.020386377 -0.42854014 0.40514562 0.26843596 -1.0698348 -0.5904786 0.12619287 -0.03782629 1.532629 -0.73686457 0.8089503 1.6145667 -0.40920404 0.46958885 0.15511835 0.6630633 0.9452503 0.9119712 -0.7329938 -0.030508948 0.00501209 -0.08588596 0.45463398 0.54366195 -0.77996117 -0.9733025 1.5216511 0.6738567
7309 0.43153465 0.21147932 0.37575373 -0.01640715 0.8246337 -0.34482643 0.44946328 -0.15984756 1.2442286 0.081360176 -0.39471737 -1.0692382 0.5990999 -0.47532552 0.71412504 0.31935865 -0.35846514 -0.1754576 0.29294118 0.9636286 -0.0946061 0.78487337 0.37420842 0.30421895 0.61988366 -1.3800977 -0.7505541 -0.19905777 -0.34162405 0.12088078 0.49325874 -0.07305855
5464 -0.25817916 -0.048329294 -0.7149543 -0.82803994 1.4640478 0.22149555 -0.40802613 -0.9947945 -0.60457915 -0.11024078 -0.8185432 0.55871767 0.47468257 0.5253537 0.44464722 1.2352155 0.014095299 0.4851552 -0.5795482 1.9184294 0.3385401 0.9724606 -0.4059265 -0.1394 2.0169847 0.14373976 -0.43337378 1.7863429 1.4254621 -0.34079796 0.7886949 -0.47073618
5854 0.85019124 -0.9790392 0.6119504 -0.648591 1.1576366 0.92301124 0.06890426 0.51412517 -0.40589565 -1.6038595 0.15203536 -0.45700225 -0.5152008 -0.51752865 1.6871129 0.7765041 -0.047932584 0.73709923 -0.7477408 0.10398715 0.091939025 0.8536942 0.041190453 -1.183973 0.28429198 -1.0148085 -2.3548524 -1.1153013 1.154395 0.73965615 1.3282353 -0.53041553
2004 -0.17295896 -0.33121547 0.4993001 -0.08154411 1.1559459 0.52991545 -1.4131827 -1.3314182 -0.7248232 0.07150975 -1.315931 -0.87700176 0.19484377 -0.9946942 1.7240889 1.1307495 -1.365837 -1.3313236 -0.30928662 1.9149514 -0.7103804 0.7390697 -0.83054346 -0.92855704 1.7263165 -0.24759738 -1.5585023 -0.01963327 0.14799115 -0.8323479 -0.19246441 -0.8997922
6559 2.7053535 -0.4851356 1.0887452 -0.2981397 1.1106752 1.1278177 0.6573126 -0.689589 -0.005332897 -1.9704407 -0.08856011 -1.7213738 0.46994662 -0.79239756 0.033230655 1.1714556 0.36909032 0.90123874 -0.932729 0.06831208 -0.28859502 0.8969176 -0.3702763 -0.37470803 0.5133912 0.8385901 -1.6196387 0.5058579 1.2486436 -0.93462706 1.8102843 -1.375404
5107 0.42399645 -0.9818527 0.22453511 -1.1564468 -1.0124981 -1.0032023 -0.0865643 -1.2198852 0.58876246 -1.0056171 -0.51460236 -1.395974 -0.4411259 0.42726701 -0.059739042 -0.035312157 -1.075169 -1.4291866 -0.72625154 -0.6188211 -0.36070403 2.81537 -0.97403264 1.0919508 0.41768545 -0.8832958 -2.8784678 0.013813135 2.0699792 -0.76906747 -1.4617999 0.29676244
2171 0.881719 0.64943975 0.65640867 -0.63474536 0.46311605 -0.17949077 0.74051076 -0.60320807 0.76509494 -0.17479168 -0.48369935 0.15576 0.08839149 0.39881867 1.026745 -0.073095776 -0.5124538 -0.67523974 0.24473332 1.0835965 -0.42903313 0.6622077 0.52250797 -0.2949294 0.5829923 -0.6396368 -0.13380629 -0.34281683 0.1777515 -0.6880333 -0.018698307 0.491013
3810 0.78001446 0.91921335 1.2680179 -1.0575054 -0.3581435 -0.48962665 0.16508155 -0.15485875 0.43613443 -0.42718345 -0.38787228 -0.83430624 0.66109234 -0.49040022 1.3941827 -0.17016062 -0.55901104 0.3246807 -0.038604062 -0.73027325 0.058977462 1.4038142 0.6065286 -0.3093453 0.65948534 -1.0191886 -0.8951787 0.15650193 0.4044121 0.034539286 0.37909785 0.45930701
493 0.7601964 -0.22349387 -0.6704236 -0.37607205 -0.96565264 -0.14155388 0.5020862 1.592704 1.1486264 -0.4275262 -0.4822461 -0.5132506 0.98968273 -0.5450885 0.24308707 0.8198175 0.51903844 -0.9135522 0.06446809 0.25896218 -1.016677 0.17017439 0.08325892 -0.37182453 1.4751266 -0.28189364 -0.69994074 0.28943816 1.6964152 0.067087546 0.28129822 0.37029958
2403 0.9395423 0.7294541 -0.20496628 0.09212434 -0.9292667 -1.070017 0.5402449 0.81809187 1.0591908 0.048823938 -0.6448459 -0.7887931 1.332618 -0.55190563 0.051099002 0.30556583 0.55137634 -0.36733028 -0.20997544 0.3518002 -0.44341785 1.5771261 0.46862295 0.34145433 -0.81776106 -0.22834317 0.047014058 0.08130015 0.11469069 -1.2034364 0.7374283 0.6559116
5956 1.1195928 0.2447919 -0.8055716 -0.3268785 -2.59631 -0.6130891 0.23657511 1.54785 0.31295303 1.444888 0.8947729 1.2133732 1.1062273 -1.4483876 1.7309791 1.3523813 -1.3841373 0.21705432 -0.32779834 -0.2495267 -0.606855 1.3363857 -1.5404016 -0.10779616 0.28590035 0.049371537 -2.9099784 0.34872425 1.6165942 0.45805266 1.474807 1.4093446
6287 0.28774825 -1.2744234 0.3113413 -0.461934 -0.68096125 -0.32210693 -0.8602109 -0.2258588 -1.4475166 -0.27326286 -0.8621319 -0.50923735 0.8019087 -0.4445207 0.8722388 -0.27890548 -0.055945143 1.7501205 1.131468 1.4259298 -0.34139094 1.2137607 -0.15963243 -1.4059948 0.084671855 -0.096834294 -0.64895093 -0.42323843 0.77442855 -0.24998538 0.80043256 0.76483214
5624 0.35330817 -0.01256126 1.0502942 -1.3187193 -0.49148348 -1.235468 0.53072125 0.10494726 0.07596733 -0.23166975 -0.64562494 -0.6348935 -0.12715033 0.11153653 2.2869987 -0.81852424 -0.48731998 0.20067504 -0.6829217 1.6770586 -0.611366 -0.6908681 0.060447026 -0.8527304 -0.19099239 -1.2792096 -0.2997513 0.7441133 0.65823597 -0.3723813 1.3857062 1.3694769
4127 0.5399996 -0.13286865 -0.4030011 -0.84264463 -0.052191537 1.5576164 0.41119748 1.8756058 0.59330773 -0.6148764 -0.5903193 0.089271836 0.80145735 1.338144 0.24468043 -0.96479213 -0.38373142 0.44846308 -1.9023222 0.9752388 0.3364877 1.491538 -2.646377 0.30515543 -1.0669419 -1.1821346 -1.9019384 0.71456337 0.67505413 1.2695404 2.458041 0.45215163
3960 -0.8510908 -0.23784684 0.13507473 0.21684179 -0.96399474 1.6229339 -0.5417561 -0.35292003 0.45613155 0.09023189 -0.457736 0.17808264 0.6294565 0.06236387 0.8261494 0.15826988 0.4880068 0.013300208 0.21386448 1.2326823 -0.14214557 1.2414831 -0.38068104 0.7629399 -0.03961181 0.10596615 -0.7231891 0.69980276 -0.28137422 -0.12549864 0.03807751 0.04347337
6260 -0.8707575 -0.12570028 0.18495587 -0.07074179 -0.48301286 0.8586097 0.8805051 1.303852 0.52820224 0.5843008 -0.67694044 -0.7994411 0.12296888 0.51748306 0.601703 0.5673185 0.79992473 -1.4113147 0.47118568 1.7766494 1.3300679 0.70761734 -0.39650744 0.31391612 0.45154727 -1.8973831 -0.18266593 0.3198045 1.1627151 0.015288236 0.047706425 0.54480916
4961 0.20354408 -0.7329399 0.13155834 -0.22673357 -1.0614231 0.20992868 0.965293 -0.21983571 -0.8783836 0.3328126 -0.5119437 0.06897495 0.27975294 -0.5998338 0.5410257 0.2985899 -0.9767467 0.46363005 -0.006268042 1.4700539 0.4992385 1.6453396 0.010723917 -0.19922711 1.0040379 0.36263475 -0.34939572 -1.1093479 0.5417053 0.19613789 -0.6652709 1.129453
6979 -0.2992955 -0.25019914 0.65937066 -2.4929266 -0.68103147 1.6873022 -0.4888542 1.0778584 1.1752226 -0.21740377 -1.4477187 0.45003456 2.6045344 -0.9036445 -1.0009731 -0.040590785 0.9481126 0.58575875 -1.0683367 2.0056512 -0.71779966 1.66867 0.9851264 0.2411332 1.5283662 -0.50597364 0.0146662975 -0.69355476 0.9565938 0.021574937 0.8895843 1.8566105
5803 0.33266774 0.02758612 -1.6184809 -1.0098921 -1.8258111 -0.65273136 0.89919394 -0.57259876 -0.60551727 -0.05495826 -0.36872384 -0.27261156 -0.5801149 0.49894804 1.1648577 0.5974846 -1.1448997 0.37461284 -0.16996682 -0.41386142 -0.23249914 1.8342942 0.5186303 0.13340734 0.80666745 0.01734672 -0.40144354 -1.496774 0.44234985 -1.8344741 0.64852935 2.396307
2113 0.27571547 -0.24314821 -0.46282005 -0.15397362 0.12102715 0.68894094 -0.057842184 -1.4117515 0.5119417 1.0675205 0.47974396 0.031406313 0.014694496 1.2020437 0.78006554 0.40442136 -0.98781157 -0.2550019 -0.49026603 0.17956322 -0.013532615 0.67489547 -0.18556654 0.04370457 -0.111266226 0.31161222 0.2366803 -0.39967322 0.32613224 -0.6109206 1.5442755 0.013188539
6891 -0.11843813 -1.065633 -1.1489213 -0.5148764 0.58498526 -0.06582976 1.8248887 -0.883107 0.6540592 -1.170433 1.5490348 -0.70323426 2.1798706 -1.1791589 2.6296709 -0.20843193 -0.28979978 0.035324123 0.5090994 -0.18246286 0.9385452 0.18932782 -0.00044066485 -0.30837396 -0.29276496 0.10042204 -0.32668468 -1.5141493 1.9703361 0.037149284 3.9558225 -0.077370584
2957 0.044968687 0.3063082 0.9962753 -0.64773893 -0.36651397 0.30986872 0.1703818 -0.053643983 0.27110305 -0.4916296 0.13624282 -1.6196473 0.12933613 0.46375477 0.6131648 0.6086192 1.0528535 0.16675985 0.61223394 -0.032441176 0.519331 1.3542931 0.83899134 -0.14421797 0.20661733 -0.77485895 -1.2782203 -0.39151642 1.0732106 -0.33155587 0.34414616 -0.5162809
1030 0.36057755 0.17503852 0.6903662 -0.76381654 -0.104992926 -0.11556951 0.45438623 0.70035 -0.30687988 -0.57513964 -0.10235265 -0.7685187 0.536272 0.072307095 0.19765183 0.6908635 -0.2499484 -0.68281204 -0.2567024 0.70914847 1.0591255 0.15706834 0.4593365 0.15711586 0.1777446 -0.7616315 -0.7983636 -0.16181324 0.42481464 0.10654399 0.21453102 0.01176543
6323 -0.016981443 -0.7663591 -0.39503667 0.40856853 0.1603344 -0.39336002 0.6010032 0.50178874 -1.0986692 -0.042214107 0.2187669 -0.37842914 1.0261605 -0.0844072 0.69497883 1.5363371 -0.08553299 0.83319247 -0.6250494 0.2858311 0.82696867 0.7095087 -0.34907004 0.14485875 -0.2542375 0.1808591 -0.5445969 -0.25025168 -0.12794982 -0.6506078 1.0374023 0.5398247
6262 -0.122780845 -0.41231304 -0.7420066 -0.5542294 -0.7718549 -0.05674438 -0.19440511 -0.9841684 -0.5699984 1.1771972 1.1575844 1.0854286 0.9316887 0.32384565 0.43811822 0.55756724 -1.031956 0.07376591 0.29086944 1.1890235 0.011561208 1.3590708 0.37435824 -1.8069673 1.1000723 0.031186746 -0.18098179 -0.5404547 1.0652708 -0.31537065 -0.07634473 1.2674893
3469 -0.49712297 0.3612231 -0.14983252 0.0545047 -0.27204406 0.4998513 0.1272495 -1.2527916 0.7725638 -1.5767161 0.42924124 2.1827486 -0.61527824 -0.5686979 0.9287883 0.06852767 0.27318555 -0.5110464 0.114826396 0.9981774 1.6854022 1.2223483 -0.03888438 -0.9498389 0.28859958 0.19571587 -1.853348 -1.3401948 0.5279034 -1.5131878 0.13803074 0.60643053
2863 -0.29318506 0.4767426 -0.36575353 -0.64261776 0.38441798 -0.13481236 0.5079419 0.26047888 -0.0045784586 -0.44486308 0.33987746 -0.34762597 1.7333335 -0.4065901 0.28424466 0.23852775 -0.4523228 0.47709897 1.0869565 1.8307585 0.029522132 1.0066943 0.12758085 -0.31039742 -0.32988337 -0.63012266 -0.764962 0.21113612 -0.5750554 -1.0246544 -0.37972432 0.5712292
1908 -0.12964989 -0.2548874 0.26787418 -0.9052024 -0.040552665 -0.15376812 0.082847506 0.7144781 0.6465834 0.36059508 0.8885222 -1.7278495 0.225247 -0.9806896 1.2780278 -0.24742405 -0.77555823 -0.15428443 0.8618044 1.1765281 0.6196176 1.0087593 0.8624739 -0.36960003 0.8647323 -0.63555974 -0.10489475 -0.9335902 -0.35753492 -0.99204934 1.001154 0.46448323
5837 1.1847852 -1.1660095 -1.2435116 0.85561186 -0.03430853 -0.42336628 0.44448885 -1.8957139 1.4496621 -0.23725463 -2.0402277 -1.2251986 0.3003728 -0.5238865 1.4059622 0.3093311 -1.7487988 0.714869 -0.27462503 0.34165716 0.26986852 0.27291152 1.427186 -1.7920144 -0.25651938 0.048994116 -2.2130733 0.19497992 -0.79872864 -2.4718008 0.2052611 -0.5064774
3966 0.45046818 1.117599 -0.14436415 0.32281467 -0.13669063 0.06749527 1.1869626 0.31494844 1.3888353 -0.060993787 0.45703685 -1.6550955 0.640712 -0.32978404 0.45203495 0.10866754 -0.7990977 -0.828074 0.3239963 0.057328645 0.6764683 1.5845454 -0.73619944 0.5535241 -0.8518542 -0.13153651 -0.7172527 -0.18578732 -0.46747613 -1.3434937 0.77467465 0.5055978
6374 0.2784632 -0.48361543 1.6004877 -0.53806186 -0.39330027 -1.1908137 0.970599 -0.38888946 0.3611845 0.3595877 -1.4441779 -0.14748238 -0.16316135 -0.10125802 1.2453358 1.4467572 -0.5031051 -1.0067791 1.5352802 0.4677136 -0.10101513 1.8368547 0.16918306 0.16688158 0.69128025 -0.5767123 -0.5695572 -1.2639642 0.28618702 -1.8288932 -0.117323466 0.17348504
3705 1.6816076 0.3714953 0.46430326 -1.2591946 -0.20105189 -1.3194361 -0.010618501 0.40941378 0.7335058 -0.4362614 0.15189734 -1.2172263 1.5002218 0.9176677 -0.07291046 1.0659577 -1.6363521 -0.1795757 0.671475 0.09198571 2.0897315 0.6973689 -0.29023153 -0.32148328 0.34490427 -1.1248112 -0.70505804 -0.30745724 0.8743953 -1.0260338 -0.054226406 -0.594985
270 0.90193856 -0.083117016 0.98319083 1.1703476 -1.1255795 -0.07929683 -0.11040513 -1.1743269 0.59065604 0.17149678 -0.10497496 -0.19522004 0.99612963 -0.23536439 0.64074516 -0.8846044 0.8955893 -1.884347 -0.6474423 0.5970503 -0.019770432 1.1238035 -0.3532046 -0.54240286 1.1099986 -0.7923667 -1.1175827 0.26058185 1.3016317 0.34630415 0.47840953 0.28786603
2358 0.6575233 -0.8144441 0.36745763 -0.39287373 -1.517309 0.043095708 -0.8680043 -0.834767 0.51194626 -0.98778033 -0.11256529 -0.2182904 0.47713783 -0.44188103 0.3013145 0.22774954 0.7051407 -0.8491016 -0.80175203 1.1815437 0.1761582 0.49892524 0.1193806 1.3764195 -0.18881546 -0.18032004 -0.26882905 0.09172944 1.238618 0.19143975 0.07029496 1.0656164
3324 0.4368754 0.93402904 -0.766738 0.22521587 -0.47155428 -0.25078553 -2.1094153 0.0031389268 -0.32673028 0.12148983 0.021857828 -0.17753577 -0.48719355 -1.8538338 0.95150036 0.18140253 1.9082342 0.63078165 0.12184712 1.953563 1.0196455 2.2942405 -1.1994123 -0.75668377 -0.6621003 -0.43658483 -0.28467727 1.9454584 0.36492565 -2.7226434 1.0462179 2.1067615
3273 -0.9295244 -0.14313456 0.6612288 0.2730352 -0.4348091 -0.15395127 0.92615414 -0.2553701 1.4782889 -0.050607726 1.0445592 0.09472889 1.4375459 -0.6942662 0.12913278 0.63165706 -0.73069084 0.9587005 -0.23319109 0.34965733 0.8727755 1.9065479 -0.8357679 -1.1367381 -0.22861782 1.1746758 -1.1585261 1.9761684 1.0894591 0.7035415 1.1430464 1.221124
3141 0.86683047 -0.5766068 -0.7262481 0.13514997 0.47604755 0.06740286 0.41265568 0.5700363 0.8976202 -0.24366863 -1.3873863 -0.33074245 0.45004636 -1.2445093 -0.36973584 1.0268384 -0.886033 -1.6164209 0.29084966 1.1061256 1.0853115 0.97035867 -0.4339895 -0.8699998 0.03893399 0.006407886 -0.7370624 0.35283807 -0.5417039 -0.44349298 -0.009856819 -0.09576167
3300 -0.23471256 0.4400242 0.14207645 1.364524 -0.9122152 1.0768869 -0.6306912 -0.74601966 0.4807096 0.3049402 0.097135335 -0.77358204 0.51820946 -0.52053386 0.90987027 -0.106690705 -0.59116924 -0.917075 0.060266245 0.5260311 -0.34029248 0.74774605 -0.3888178 0.65634936 0.87812835 -0.10993988 -0.79041237 0.5289543 0.8078175 -0.2693683 0.3285803 0.048327513
2098 0.61902416 -1.1872929 -0.1122541 1.354916 0.48368645 1.2987369 -0.61381227 -0.44993764 0.68291444 -0.33755085 -1.8039081 0.61789125 1.6681849 -0.6262846 0.3623423 1.0357741 0.4150141 -1.1863407 -0.88992274 0.21218345 0.81922454 0.41178197 -1.2739797 -0.0017962668 0.74124116 -0.54530185 -0.9411336 0.5151287 0.34505635 -0.28859732 0.76279014 0.8817702
5211 1.2949086 -0.6330941 0.43974036 0.2878521 -0.11261421 1.7773384 0.48742774 -1.6564553 0.5667481 0.85703754 0.38958687 -0.76244456 -0.48793817 -0.22607966 0.6432449 1.080473 -0.21697009 0.33730328 -0.84337753 0.04570403 1.246989 0.59559023 -1.1455237 -0.05406614 0.38958272 1.07761 -0.46333048 -0.8857181 0.74641806 -0.02864475 1.6437215 0.6160679
4313 -0.82268333 0.3274832 -0.48819762 0.48751506 -1.2563541 0.89837694 -0.8497161 -0.41464037 1.1055769 -2.152689 0.8066573 0.73887545 -0.5784265 -0.7370085 1.1205536 1.497429 -0.4414584 -2.0326035 -0.007097982 1.6722171 2.2523096 1.2745262 -0.10740746 -0.42927146 -0.02703128 -0.32827747 -1.1955585 -0.892462 -0.87427074 -2.0654955 -0.8372403 1.7456174
4031 -0.43130046 0.038078416 -1.1810049 0.13136572 -0.88567215 -0.4832172 0.881797 1.0625607 1.8182644 -0.40776902 0.4038261 -0.8257096 0.1655545 -0.06857431 1.5427341 0.02129808 -0.19270417 -0.5936226 -1.3582381 1.2333813 -0.40703675 -0.29530096 0.09391578 -0.9753461 0.320367 -0.47431687 -0.88143235 -0.8079717 0.5004988 -0.047009263 -0.29743436 0.26062506
4611 -0.3492776 -0.35570052 -1.0414172 0.50927186 -0.7498169 1.4387351 -0.4833477 0.21675022 0.44199276 -0.083402455 0.47316426 -1.4961139 -0.99902505 0.26384732 -0.45086932 2.6226077 0.05303837 0.27884752 -0.7163572 0.08210048 0.6914432 1.4065182 -0.108425215 -0.7105907 1.3893739 -1.272058 -1.1514223 -0.6001877 1.2542726 0.30911443 -0.12899566 1.4209986
1729 1.2485782 -0.44731358 -1.2140449 1.0758258 -1.7270973 0.8422975 -0.7414622 0.1487535 -0.4345621 -1.919079 0.109578624 -0.624004 2.552051 0.020708444 -0.47441494 1.0858711 -0.58684075 -0.1735277 -0.88934684 0.5673101 1.1610295 0.60080725 0.57688147 1.0228792 0.9718838 0.8091171 -1.4741868 0.17022109 0.6674095 -0.6709126 1.5056552 0.55652744
2556 0.020051522 -0.18180463 0.11210604 0.1959521 -0.58725286 -0.58521515 0.09019245 0.29388922 0.16277276 -0.7384576 -0.5068845 0.21664475 1.536617 0.5667249 0.615886 0.5629669 0.009311553 1.1554348 -1.485269 -1.0130119 0.49894527 1.7254671 -0.5228319 -0.78592026 0.13865088 0.5451961 -0.48768058 -0.6458186 0.33657035 -1.055759 0.055937115 0.89330095
3901 -0.81152 0.47147405 -1.6605977 0.5905989 0.18230012 0.5667602 -0.75320846 -0.7872643 1.8994561 0.46609697 -0.72595125 0.8215701 0.29388365 -0.67687976 -0.908945 0.45450145 -0.4464874 0.5733999 -0.21888074 2.643668 0.1985578 2.0843375 0.085412286 -2.0266163 0.05770191 -0.09058793 1.6298916 -0.13411693 0.118591264 -1.0493422 0.44700453 -0.6859352
616 -0.5670216 -0.82251966 -0.23362705 -0.3124017 -0.25210002 0.14536093 0.16138819 0.21056892 0.6284857 -0.45771584 -0.40965375 -1.7038165 -0.031840548 -0.77503705 0.7909333 -0.24226013 0.4832995 -0.81132096 -0.82428735 0.3736617 0.32973844 0.8171455 0.12031444 -0.030753803 0.37141836 -0.62198263 -0.7726656 0.19448821 0.23309363 -0.28187326 -0.4863082 0.4864466
7258 -1.06129 0.27846518 -0.20191926 -0.9427525 -1.0219548 0.6116777 -0.120148994 1.4718385 -0.16202535 -0.090493895 -1.0688224 -0.045252547 -0.6152008 0.6179996 1.4067812 0.42870346 -1.184764 0.11878921 -1.8549304 1.0079727 0.58412427 1.1895765 -0.42797193 0.062010415 -0.9954566 0.2543316 1.7148458 -0.753958 0.6068943 -0.6486589 1.3053597 1.2797397
32 -0.16948156 -0.07190895 0.025383484 -0.09632208 -0.44185916 -0.042840708 1.3917855 0.23118888 1.1952885 0.52305806 -0.5081063 -1.7185001 0.006328923 0.41911227 0.6512353 -0.3827964 0.4850856 0.27104485 -0.69255334 0.45985812 0.15267646 0.5328267 0.6136724 0.51542586 0.48678383 -1.4214814 -0.2638976 -0.5674647 1.0068619 -0.67171425 0.5286866 0.5336714
3862 -1.0114073 -2.9557662 -1.0111084 -1.7315217 -2.2428296 0.47662303 -0.06859119 0.30094838 0.24474914 -0.7923465 1.3830822 -0.31157598 0.3067877 -1.7940133 0.4105775 1.0623363 0.030492729 0.87275565 -2.1720881 2.4693384 0.8294079 0.053459495 0.49053055 -1.1534115 0.12080595 1.4457694 0.9957094 -0.41430426 0.59349006 -0.8182399 1.1092483 0.36720476
2629 0.21110709 0.30095077 -0.61396956 -0.05676255 -0.6495464 0.006774209 -0.41101226 0.1289932 -0.7761527 -1.1395947 -0.16528301 -0.19267294 2.0827813 0.43501872 -0.55011344 0.05066905 1.2045758 0.7522916 -0.7215864 1.3605405 1.9257755 0.8791904 0.010039458 0.5684533 -0.8608016 -1.050166 0.5434636 0.50653416 1.8910655 -1.9765404 -0.060247205 0.45446518
5463 -0.95186234 1.3193766 0.3689472 -0.8195718 -0.75744665 0.66644317 -0.29299775 0.37731332 -0.15309192 -0.107297264 -0.75130534 -1.6009171 0.10364993 0.57037944 -0.040444314 0.9905542 -2.1262784 1.0222578 -2.0725145 0.7977493 0.28667235 2.2765205 -0.029996473 0.14183056 -1.2298635 -0.35634226 1.5580003 -0.27973866 1.6902723 0.4994908 0.78106284 0.33930147
1749 0.8556147 -0.27466914 -0.41406527 0.49218613 0.0802638 0.84156406 -0.5863406 -1.2599602 0.012995825 1.5488491 -0.02813418 -0.34925798 -0.2668674 0.72262424 1.4643062 0.24340047 -2.685331 -0.55029786 -1.3592926 0.28505078 0.5676881 1.2543844 -0.054519814 -0.23587169 -0.15728818 -0.56953186 -0.26125342 -0.77150583 0.20412637 0.19110261 3.0853956 -1.1362112
6817 0.8659379 -0.52194893 -0.14485073 -0.49211484 -0.28520924 -0.2884852 -2.3844965 -0.19086868 1.0780228 0.5520253 -0.5047886 -3.6974308 0.5246428 -0.6531779 1.2704767 1.5957464 1.2888302 1.2304025 -1.270063 1.7367169 0.6753145 0.19007018 -0.8541294 -1.2223649 -0.9614998 -0.663245 0.23764738 -1.6740621 0.8452182 1.1373906 1.8120418 0.42129782
4578 -0.29324543 0.65935636 0.600911 -0.0060682907 -1.8720601 -0.30173433 -1.5091094 -0.00815312 0.08582096 -0.49327686 1.4799379 -0.6507745 1.5034298 0.07862344 -0.6926872 1.6365409 -1.4545386 0.003925016 -0.29709116 3.2224765 0.31830934 -0.40050578 0.5428209 -0.5739238 0.52745265 -0.5049919 -0.23716208 -1.0535711 0.3874056 -0.60979956 0.101575516 1.7787807
3601 0.9757893 -0.41587412 -0.24458148 -1.6022003 0.0028861212 0.25304043 -0.18345286 -1.2952595 0.8047416 1.2028284 -0.12144446 1.1051179 -0.092351794 0.13492882 0.82688814 0.5791376 -1.0690506 -0.32976595 -0.537201 0.785117 0.19682562 0.49697375 1.5581982 -1.1805062 0.29027334 -1.4964095 -0.31962386 0.4443429 -0.36700174 -1.2022738 0.96554303 1.0364864
6799 0.21680611 -0.54038584 -0.23695973 -0.5281917 1.3527659 0.16014671 0.14225331 -0.0031494675 1.1345791 0.08539989 -0.074186824 -1.7295219 0.8116062 -0.362782 0.0010494767 0.20896627 -0.5374951 -1.1269336 0.13171682 1.3313491 0.31196225 1.095144 0.39741367 0.5299513 0.5966202 -1.2663112 -0.4984417 0.20493586 0.64642835 0.462077 0.7980591 -0.21393523
3778 1.4798627 -0.023272255 2.2550483 0.23290488 -0.54102796 0.9115459 -0.9203916 -0.006151423 1.434523 0.7211629 -0.8118793 0.4069726 1.275936 -2.0231886 0.8095756 0.5639903 -0.1358062 0.06533044 -2.4941626 1.91602 0.75514907 2.1370294 -0.4991989 -0.7035 0.13069211 -1.2147256 1.2997895 -0.67875046 1.297229 2.2317069 0.93436974 -0.8720173
4474 2.1430948 -0.584674 0.9777597 -0.81204295 -0.7951165 -1.082794 0.11216347 0.09831495 1.1932873 -0.6500404 0.18732333 -1.3778272 0.87777275 -1.0636454 0.23557404 0.23409796 -1.1013502 -0.8311014 0.08411504 0.6514734 0.87594855 1.2670233 0.054885473 -0.39351973 1.0207112 -0.6320564 1.0416774 -0.6426003 -0.06268263 -0.64161193 0.27942112 -0.19035631
188 1.1693864 0.05505846 1.1749513 -0.48505884 0.26977426 -1.0383162 0.48620364 0.11292606 0.7874225 -0.1980878 -0.23698884 -0.8792613 1.0990797 0.19753678 -0.09052996 0.76998985 -0.51083785 -0.23055513 0.10555468 0.6681428 1.3210869 1.1681217 0.30360848 -0.40014324 0.76228046 -1.521809 -0.5416797 -0.4451931 0.6482466 -0.57879037 -0.38328293 -1.342203
1261 0.40024948 -0.0872416 0.5843161 0.22245586 -1.0156405 0.78373015 -0.044114135 -1.0179685 -0.14935243 0.4675268 1.6083721 -0.58159757 2.1840942 -0.695668 -0.27266788 0.6296793 -0.16302931 0.41123772 0.047832344 1.2065222 -1.3823416 0.3707489 0.5876264 0.52543986 -0.015486223 -0.7637491 -1.0192301 -0.13350181 1.1624835 -0.5631915 1.1043526 -1.1083249
3713 0.020938197 0.12600505 0.8439088 -1.1280727 0.38111418 -0.33752358 0.086754695 0.4841496 1.154034 -0.89491767 -0.13284153 -0.8574398 0.953786 0.4694417 0.3123616 0.75385505 -0.54142046 0.19808722 0.48356727 -0.023572281 1.8851241 1.4284136 0.013429797 0.41665882 -0.91731185 -1.3761386 0.1327171 -0.30257058 0.20218895 -1.2172071 0.36997235 -0.6512187
5490 0.29196495 -1.5249653 -0.14290722 -1.0746113 -0.9437134 -0.37496024 -0.07193874 0.9516344 -0.0044637974 0.06582174 -1.1447891 -0.7374217 0.7330321 -0.6533874 -0.4996832 2.8425345 -1.2690878 -1.129008 0.43425688 0.52373916 -0.19611615 2.0934267 -0.8154445 0.9814304 -0.15952672 -0.6167015 -1.4792173 -2.363342 0.61958605 -1.7533458 -1.4038489 0.844387
5142 -0.20085067 0.21829176 0.19793527 -0.6747783 -0.17553039 0.026976585 1.836238 0.68931293 0.5563722 0.8682602 -2.8178043 0.30502793 -0.73137575 1.3973024 0.80877936 -0.90491956 -0.5764927 0.17180438 -1.3662511 1.4930532 0.6600509 1.0774751 -0.8679306 -0.8174976 -0.77007085 -0.2966273 -0.5642591 -1.0937109 0.10462881 -2.2620535 1.1292219 0.92230344
941 2.3312051 0.6644656 1.4794393 0.94352955 -1.096087 0.6284589 -0.26864874 -2.3553839 1.141691 0.8047408 0.16908514 -0.63762337 1.1661277 1.1291476 0.4352095 1.2188509 -1.826876 -0.41088033 -0.4230262 0.17794405 -0.118258126 0.54626155 -0.33120772 -0.03289752 -1.0129955 -0.20950195 -0.21148331 0.47093466 0.5597567 -1.6047885 0.8791064 0.7627307
5178 -0.1785101 -0.49304545 0.7884837 -0.14687167 0.3908088 -1.4909145 0.68058455 0.39785644 1.185264 -1.1008885 -1.1721799 -1.87069 0.60459185 -1.0649087 0.2844569 0.7185508 -0.14348216 -0.0061243544 -0.3039198 0.46887487 0.45938846 1.0880027 0.4324547 -0.88886 0.9778341 -1.1443956 -1.1191281 -0.415212 1.2466363 -0.03534365 -0.65525234 -0.38716167
1423 -0.45215562 0.42263085 -0.0040081535 -1.6527783 0.6425497 0.18783867 -0.7056437 0.40056315 0.5603164 -1.2630678 -0.4095485 -0.30276707 1.7950507 0.105106294 0.25536323 0.25345057 -1.3503039 -0.036722425 -0.11069642 0.08010664 -0.09614609 0.7820394 -0.6484222 -0.7733392 -1.0482048 1.2261834 0.49118757 0.9076406 1.2585286 -1.0503628 1.1231833 0.08918488
3373 -0.33605772 0.23591696 -0.7711981 -0.10733191 0.97548777 0.081223786 0.2906138 -0.8628329 0.14488152 -0.42193398 -0.7752691 0.33344597 -0.7204562 -0.7611944 -0.0646072 0.89018595 -0.977074 -0.87691844 -1.6117175 1.1807418 0.085089855 0.66405326 -1.2408236 -0.45638934 -0.35297287 0.12331453 0.44278035 1.3431097 0.9579974 -1.1664019 0.6900669 0.04371955
3386 -0.19266832 -0.4807353 0.48584807 -0.6143126 0.20401326 -0.24700892 0.54545635 0.17104416 1.3693253 -0.11934664 -0.07781274 -0.6350601 -0.050862677 -0.33852807 -0.42618912 0.5911893 -0.007839666 -1.2476913 -0.23242714 0.28375944 0.17012261 0.7449801 0.019904125 0.6220045 0.34632784 -0.6406183 -0.3387993 0.5567394 0.3298272 -0.56365144 0.9549173 0.1967985
1391 0.4144415 -2.3618104 1.034538 -2.0042899 -0.21565911 -0.5387476 0.2571545 -1.1399887 -0.27061614 -0.35601223 0.06512005 -0.9743528 -1.2544222 -0.40580675 1.2064077 0.27119797 -0.2242751 0.16581626 -1.1052526 0.8390138 -0.2583915 1.0566621 0.49492523 -0.8461993 -0.17276028 -0.52981895 0.98983747 -0.35048154 -0.50124866 -1.2086335 1.5504292 0.4077054
879 -0.70798975 1.1710647 0.09923631 1.0549963 -0.42662236 0.41755494 -0.4006452 -0.37992275 -0.38694778 0.5980651 -0.8492057 0.5011489 1.8397652 1.1156063 0.97378486 0.9867986 -1.7853116 -0.53105676 -1.186426 -0.45075846 -1.0999482 2.1055367 0.27228555 -1.8354642 0.4518439 0.39782286 -1.0052191 -1.352311 0.521988 -1.2438667 1.2339053 -0.6111006
3332 0.8069887 0.80573344 0.5849379 -0.054993685 -1.5227078 -0.80410135 0.9065849 0.6464376 1.0687764 -0.44989246 -0.6297694 -0.9461381 0.75853425 -0.4098241 0.188049 0.26920277 0.12394232 -0.35011476 0.22152753 0.42229182 -0.6117853 1.2102368 -0.16433342 0.6459573 -0.25480327 -0.12350379 -0.59340173 0.18190269 0.42019615 -0.9856208 -0.21625681 0.30619603
1751 0.10364243 -0.43220446 -1.10238 -1.0426803 -0.22333477 -0.78973603 0.26804394 0.075883605 0.70158374 -0.9876139 -0.016559683 0.4004687 -0.15116996 0.07748453 0.6965774 0.8765689 0.12373445 -0.63004154 -0.34154892 -0.15372302 0.3004582 0.64949316 -0.7790093 -0.40436375 0.86655706 -0.8109422 -0.40036252 0.36230075 -0.55994093 -1.4950285 0.24946551 0.06965436
3682 0.13641259 -0.36470816 -0.13021559 -1.0094044 0.2760646 -0.6608661 -0.117841244 0.11345283 -0.16783202 -1.2195026 0.1630899 -0.3234511 0.5621181 -0.46779197 -0.8340518 0.6295847 0.7528814 0.18223245 -0.24492618 0.8015262 0.8572574 1.3773936 -0.4490127 0.08600258 -1.0880244 -1.6875975 -0.20242827 -0.5914823 0.33191577 -0.49649394 -0.022792753 -0.17576598
6761 0.8752348 -0.41236892 0.73274636 -1.0680926 -1.1754267 -0.36167103 -0.74186826 -1.1218321 0.5212748 0.043025255 -0.23808624 -0.17274174 0.6369852 -0.5317853 1.0830743 -0.85651344 1.3085088 -1.4031423 -1.4827907 0.07762736 0.15519023 1.2006936 -0.37363297 0.42684677 0.0395518 -1.2207811 -1.1617143 0.48348665 1.3753849 0.3763587 0.8195419 1.373112
2366 0.6155237 0.038632967 0.60574055 -0.6900875 -0.55891705 -0.034746356 0.18483704 0.19912222 0.4045429 -0.29494804 -0.4129108 -1.2074233 0.29854205 0.9368376 0.478426 1.1369414 1.0117313 0.13412872 0.6305688 0.4189572 0.29619855 1.1358987 0.53974015 -0.40257958 -0.12480371 -0.09174739 -0.6185611 -0.73707473 0.37693113 0.013521859 0.14819613 -0.6071684
7390 -0.2867646 0.5449331 0.0133372685 -0.65115565 -1.8141187 1.3046764 0.6769095 -2.2271798 -0.25872192 -2.6920054 0.78489435 0.084643155 1.2400441 -0.87433815 0.3953892 1.340667 0.8532762 0.46107256 -1.9525898 0.9300124 1.453846 1.6344212 0.73864067 0.74788606 0.045894112 -1.3324805 -2.1477005 -0.3070359 0.62723625 -0.40230334 -1.1527483 -0.99665236
4725 0.9558796 -1.2207706 -0.501826 0.5722386 -2.4007525 2.001172 -1.200692 -0.7478271 1.5979631 -1.0384345 -1.7877424 -0.32987788 -0.39952636 0.4072275 -0.46707505 0.65516096 -0.21795051 1.1081684 0.6559706 0.84158546 0.27932036 2.3960404 -0.7502144 -0.64941686 0.6356606 -1.1265761 0.6606356 1.1767626 1.2081971 -0.6146068 -0.61190116 -1.7958001
2005 1.4525813 -2.31299 0.6972933 -0.33751932 -2.1789074 0.15192181 -0.48102427 -0.17868513 0.86579627 -0.70256275 -0.027959408 0.6351975 0.84041035 -0.38150927 1.7453524 2.177082 -0.28294873 -2.2207723 -0.58355224 0.7867065 0.22303303 0.898682 -0.9762642 -0.60167557 -2.4574137 2.101641 -0.42704767 0.9046389 1.5715832 -1.083438 1.0929542 -1.0999163
881 1.1529437 0.1118834 0.053283006 -0.28894275 -1.3200055 0.91929877 1.2074742 -1.8744795 0.7918707 0.23038344 -1.163119 -0.33281872 -0.039096534 0.51526016 0.34751618 -0.75930494 -0.8741407 -0.9671188 -0.61573815 0.032956555 -0.6789924 2.4607506 -0.64185166 0.15079391 -1.1531029 1.0779582 0.14754121 0.5869536 -0.037921127 -1.1004843 1.4116194 0.14546391
4296 -0.36700484 -0.69054085 1.3005421 -0.09880691 -0.12171095 -0.14952359 0.043536752 -0.058803692 0.6150427 -0.037460927 0.47896725 0.36811596 0.46463344 -0.03724515 1.2711929 1.9251634 1.0408821 -0.1872341 0.28880164 1.0217104 -0.31118393 1.0615314 0.45491368 -0.788527 -0.5011114 -1.3861063 -0.4534263 0.35152137 -0.898196 -0.23665598 0.9613533 -0.9098907
4480 0.8610021 1.5836293 1.0101919 -0.4803059 -0.98453534 0.75941753 1.4635847 -1.454496 1.4822211 -1.5930601 0.027481312 0.9070812 0.41255888 -0.6007816 1.8914324 -0.24340037 0.1571151 -0.36963162 -0.7926136 1.074422 0.6062156 0.5681072 -0.05969083 -1.0235808 0.68028736 0.001670213 -1.7833068 -0.60982245 -1.3277011 -1.9531903 0.42345878 1.7720599
4447 0.5255192 0.15329036 0.6974664 -1.5756847 -0.41528058 -0.6345234 0.30503336 -0.16164051 0.7422882 -1.6799518 -1.0829531 -1.3288587 0.48226577 -1.1931816 1.0657755 0.51305234 -1.077233 -0.7642736 -0.6338313 0.730839 -0.6338566 0.89711577 0.05771642 -0.25376767 0.14900765 0.30422038 -0.07623721 -0.31291896 -0.027929343 -1.5520592 -0.8955682 -0.49507195
782 1.0639542 -0.5079638 -1.0398065 -0.65549505 0.032698102 0.6057972 0.5466944 0.23193863 0.67448056 -2.564273 -0.16672066 -0.3869391 1.1778681 -1.1889833 0.8763478 -0.77617204 0.32758212 -0.31011403 0.2194294 1.6319203 -0.5710231 0.7306519 -0.22775841 -0.97833043 0.78386694 -1.7795125 -0.12918468 -0.10654919 -0.26733887 -0.09188582 0.15528344 0.06425668
6724 -1.1029909 0.71403897 0.9710492 -1.4753842 -1.2867881 1.4189905 -1.1920334 0.07594413 1.3246983 0.30182356 -0.44039416 1.3307903 1.7391807 -0.3422646 1.7032759 0.80169517 -0.56023896 -2.0855517 -2.2415476 -0.44427234 1.6260617 -0.2569994 0.21358073 -0.60898954 0.47368783 -1.0376756 -0.8478146 -1.1702552 2.0517209 -1.0963807 0.19451293 -0.5565282
1713 0.36179674 0.5701828 0.17836028 -1.2087058 -0.32570684 -0.4338517 0.22771758 -0.33390635 0.43716684 -0.3349783 -0.29927388 0.8381041 1.3170822 -0.50193644 0.7474269 -0.22822255 -0.91278106 0.18669568 -0.18623897 0.044457126 0.07710587 1.3392969 -0.35725635 -0.42461962 0.08653394 -1.7425017 -0.41032755 -0.4803809 0.13653868 1.0284041 0.15747662 0.65031767
1444 -0.6804177 -0.32752338 0.7649857 -1.439366 0.13656667 0.09784086 -0.43623897 0.31561762 2.0109966 -0.011138646 -2.1218555 1.701465 0.9224027 -0.022159882 1.3739003 0.6396028 1.3397573 1.7908547 -2.0840979 1.2103832 -0.31320995 1.5490801 -0.3850943 0.6574677 -1.0370167 -1.257774 -1.4392754 0.30625945 0.76307464 0.80756307 0.640822 0.39984134
997 0.21844776 0.61069155 0.09422929 0.088458434 -0.8452884 0.44462875 -0.14073502 0.019048234 0.31210056 0.28239247 -0.43327963 0.17295825 1.2689677 -0.45804423 0.9498834 0.95283365 0.11125194 0.64817756 -0.25059733 1.4739411 -0.93405235 -0.71886593 -2.2394822 0.29804182 -0.7006967 -0.14304708 -0.99349844 -0.53452176 1.3399588 -0.9964293 0.33484697 -0.9302563
4781 -0.48705116 0.34303278 -0.6068697 0.12787077 0.8415538 0.7538443 -0.8482259 -0.22557513 1.2062051 -0.3955152 -0.39299333 0.14684439 0.48638028 0.025856528 -0.32277295 0.48557186 -0.58810145 0.56355506 -0.0077223373 1.1787934 -0.44508395 1.3348227 0.6097117 -0.6249512 0.32373586 0.39097646 0.5153507 -0.10671185 -0.022085853 -0.76618755 0.53775555 0.12155874
286 -0.69425017 0.84069765 0.18036127 0.065375365 -0.57500064 0.13580252 0.81719774 0.69841284 0.2649933 -0.22262783 0.7383147 0.06126987 0.99744684 0.76845294 0.92436785 0.3481215 -0.091999 1.260533 -1.7836576 -0.5536972 -0.4360633 1.625804 -1.5150131 -0.854022 0.98329777 -1.2011535 -0.5470074 -1.5356708 -0.27358532 -0.24279204 1.2705235 -0.29423758
597 -0.70617336 -0.6659289 0.30494127 -0.19453655 0.3157005 0.5324381 -0.4223595 -0.8337733 0.22026902 0.016205713 -0.10114652 1.2037053 1.0774378 0.85285854 0.649877 0.3865827 0.21362822 1.073651 -0.28459063 1.9286739 0.26299196 1.0516368 -0.17543054 0.1353638 1.2391831 -0.076481745 -0.4095748 0.9913986 1.2197244 -0.04859075 -0.31710076 -0.04564274
3760 -0.6911358 0.05657832 -0.078018606 -1.7903743 -0.7753342 -0.9319536 -0.35270083 -0.28993237 0.63553876 -1.2520553 -0.8439411 0.30277556 2.1630158 0.565992 -0.37048244 0.30743152 -0.7534238 -0.7615451 -1.124208 1.5359234 -0.24014536 1.7656599 -0.09064527 0.14623696 0.27703565 -1.7504153 1.3890126 -0.5857862 0.6408054 0.48793232 -0.27385375 -0.9644659
1363 1.143911 -0.46900687 -0.12520891 -0.4309578 0.6658317 0.089855134 0.90200543 -0.41844562 0.6876967 -0.5478502 -0.10953267 -0.891841 0.76008606 -0.8569776 0.8268468 -0.059507437 0.49175438 -0.016551623 -0.50712645 1.1452959 -0.0065752324 0.18515289 -0.2875789 -0.18483561 0.86099136 -1.6141324 -0.44150984 -0.077279404 -0.50650024 -0.05469741 0.55499476 -0.3811502
2596 -0.64597255 -0.57476664 0.14938927 -0.4117272 -0.29321167 0.16328351 0.21178903 0.52872455 0.7387562 -0.5412244 0.7225474 0.30251846 0.12549552 -0.096403845 1.5799232 0.23435348 0.0997315 0.80893016 -0.06891104 0.8981461 -0.49076253 1.3590009 -0.8446094 -0.7753804 0.572147 0.6398975 0.08393427 0.70668435 1.3479469 0.25353584 -0.19647864 0.9706268
2412 -2.0882115 -1.1031289 -0.36720693 -0.8789199 -0.55330825 -1.2667464 0.11046187 -0.5541635 1.8374033 -0.30523723 0.11804858 0.102037355 -0.45918876 -1.166509 0.8414347 0.026051883 -0.9162032 0.084216036 -0.47190726 0.6532297 -1.119526 1.9377223 -0.8144504 -1.7089489 0.42082897 1.5736271 -1.2321831 0.2849032 1.3884698 0.04005768 0.06927509 0.10532426
3146 0.11689595 -1.6647345 0.9152931 -0.53497124 -0.98995364 1.0142773 -1.6625532 -1.1809195 0.6706193 -1.2315096 1.1080601 0.691409 0.10092133 0.31959218 0.18563734 0.810231 0.9726322 -1.3651395 0.491682 1.6048589 1.1292711 1.3768444 0.093563646 1.3025453 -0.20270188 -0.49104953 -0.27240324 0.8312046 2.3004723 -0.40970385 0.50268924 1.243663
2708 0.88465816 0.50142187 -0.31033772 1.4655224 -0.8472059 1.0809205 -1.8379569 -1.2821479 1.1644775 -2.1148934 -1.5286703 -0.305146 0.6838658 0.9886323 0.5175934 0.14319082 1.8001068 0.21681336 -1.0311928 1.9793564 -0.63363624 2.2053258 -0.68676645 -0.59042925 0.1849663 0.78520894 0.37263677 0.20567267 0.94667673 -0.6084157 1.2270681 -0.89041156
3634 0.44335878 -1.0338694 -0.6349309 -1.0912523 0.13666713 0.8503298 -0.58571434 -0.48252982 -0.85855526 -2.7310796 -0.5777568 -0.7725014 -0.32961056 0.8486825 2.35324 0.14075878 -0.033137843 -0.18910985 0.007871579 0.7400999 0.811851 1.635109 -0.29073548 -1.514867 0.35063726 -0.39433998 -2.3370366 -0.8934904 2.0897374 1.9681664 1.6991032 -1.0851353
5255 -0.85146886 -0.09755629 0.59676516 -0.08092925 -1.7539872 -0.35326073 -1.9667639 -1.2975358 0.24252598 -0.21535023 -1.4397154 -0.8593555 1.4641562 0.1131571 0.37306368 1.4439014 0.11418457 -1.6055893 -1.1427175 -0.41821447 0.03581095 1.8708504 -1.0811528 -1.254013 -2.0145175 -0.36727914 -0.6455167 -1.1275169 1.7607286 1.4436796 1.5014334 -1.749301
3908 -0.09952753 -0.006803488 0.82331926 0.04558298 0.77555954 1.1741278 0.29605037 0.288541 1.38292 -0.64717406 0.3236221 -1.2271277 0.6458761 -0.14383572 0.8614626 -0.15070422 0.3081828 0.48864064 0.62645173 0.14926077 0.9997905 1.4416012 -0.2030576 -0.13170134 0.08079316 -0.938753 -0.17214668 -0.85504144 0.5538168 -0.4307688 0.17485364 -0.3601234
6036 -1.6987978 -0.59216356 0.47220185 0.40312788 0.23524286 1.3182671 0.41409945 -1.1659843 0.1830528 -0.21086265 -0.25279415 -0.3850508 2.0759115 1.6996199 0.39500865 0.9024508 1.0023098 -0.4032299 0.025754366 2.0069747 0.15270375 0.10509421 -0.5050533 -0.33618376 -0.16593514 0.68054676 0.22386858 -0.4353992 0.7320207 -0.9479431 1.5941535 1.5406989
4310 0.70558226 0.07472511 -1.8100678 -0.06252932 0.6414388 0.71986824 1.6322551 0.21960685 0.7394147 -0.21217054 0.063541785 -1.3388731 1.4292185 0.4050328 -0.072829105 2.2140193 -1.645634 2.335716 0.18382026 0.73006636 -0.19248775 0.33734602 0.55815023 -1.3694057 0.09192768 0.57351285 -0.9794557 -0.35519898 1.3633151 -0.34222466 0.32079762 -0.20975861
7177 -0.4097363 -0.4776514 -0.5768789 -0.21536058 0.27763662 1.0160816 -0.5953217 -1.0171076 -0.22324763 -0.7064076 -0.9861031 0.6937143 1.4141735 0.80816555 1.0385019 0.82518065 -0.0035435192 1.2333319 -0.8248058 1.3016372 -0.22608566 1.0211207 -0.26686817 0.12051637 1.85008 -0.12670434 -0.2204652 1.1194227 1.677791 -0.2030946 -0.2510103 -0.19577473
3923 -0.4556038 0.502155 -1.1707555 -0.53170455 -0.46430188 -0.23908423 1.1094801 0.3748629 0.14079052 -0.26769602 -0.449802 -1.1041878 0.8232411 0.18168464 1.5012985 -0.3855147 0.27083033 0.49650425 -0.60004234 0.62807477 -0.6982903 1.2501682 0.2495379 -1.473847 1.1526042 -0.39831755 -0.42320487 0.14339161 0.3594481 -0.8341466 -0.5545919 -0.87329453
6603 0.15054032 0.23721369 -0.7509738 -0.6219077 0.9551949 1.5350311 2.2605994 0.3089394 0.17108922 -0.4989488 -0.5003559 -1.0343819 -0.6502014 -1.4671763 0.49396995 1.43321 0.21579446 -0.28942534 -0.36713144 0.7839516 -0.13357134 2.0748951 -0.57308733 -0.09293627 0.67833155 -0.6358793 -0.51897764 1.3398488 0.3895571 0.2003819 0.74624944 0.03480479
1262 0.43448365 -2.5014985 -0.7271141 -0.4083992 -1.7125347 0.57091516 -0.38320914 -1.7676162 0.6366648 -0.51615304 -0.84959656 -0.40118226 0.80213016 1.7598444 1.4438004 0.055526827 -2.160419 -0.2799732 0.030789008 0.032379013 -0.5130892 0.10319766 -0.85504663 -2.1419997 0.21670379 0.38813016 -1.2421771 1.0267122 0.733483 0.40986803 0.881846 0.10568823
127 0.121402934 -0.16137777 -0.19652574 0.36208445 -0.7957193 -0.49676344 0.9678823 0.17154987 1.738943 -0.28154406 0.9920792 -0.12238493 -0.3507062 1.4656044 2.1657465 0.7170313 0.43847233 1.1134243 -1.2533588 0.081428 0.33841962 0.09945726 -0.77650166 -1.9083862 -1.6227168 -1.6793394 -1.1894448 -0.8233021 -0.07377192 -0.6080573 1.2889572 0.20510359
2212 0.86812496 0.45908505 1.1177318 -0.50072896 -0.100776665 0.7605056 1.1213845 -0.003604943 0.7999533 -0.40785635 -0.3080517 -1.1699833 0.26039898 0.5317408 0.9054636 0.46113658 -0.21327654 -0.23638499 0.43219557 -0.4519831 0.29116845 1.5258608 0.62180805 0.26322514 -0.15363964 -0.5850534 -1.1955174 -0.6941539 0.51420414 -0.22352637 0.30048475 -0.31752017
3787 -0.46051162 -0.09845938 -0.6576054 1.0746543 -2.1089928 0.3643458 -0.26491952 -0.7978197 -0.6424525 -0.7218156 0.41830927 0.4771728 -0.014916711 -0.6223124 0.9508444 1.6099173 0.8428665 -0.15036285 -0.8838269 0.5230554 -0.9110831 0.7006019 0.14029565 -0.48525313 -0.3848698 0.18759075 -0.30107024 -0.025230838 0.43764803 -1.5211989 0.760873 -0.7147734
7509 0.4377805 1.1622332 -1.1812009 -0.23124665 -0.38777825 -1.3388265 1.4850427 -0.9805468 1.7366315 -0.39956787 0.021422978 2.079859 1.3323406 0.09357902 1.2666901 1.2376306 -0.75783163 0.23624948 -0.29183644 0.14578073 -0.5642919 1.222667 0.2084035 -0.6197826 -0.9987636 -0.96826416 -0.058881603 -2.2635443 1.2726231 0.9243092 2.5560794 1.9652853
3323 -1.1717762 -0.3740294 -1.0627372 0.36522764 -0.5286542 1.3666152 0.5244681 -1.2852308 0.2907762 -0.027937287 -1.3854011 -0.8790889 -1.3453432 -1.8831748 1.2115442 -0.21444124 1.9613291 -0.015052565 -1.9201205 -0.24958418 0.9174808 1.7206893 -1.9958572 -1.1149933 0.8382101 -1.0412865 -1.5548967 1.0785832 1.1739091 -1.6174183 0.7496632 0.506632
849 -0.39094943 1.089412 -0.08121989 0.8492227 0.095790155 0.0481106 0.0044213384 -0.30346465 0.40664846 0.10176663 -0.82424855 0.324099 0.88188946 0.4778458 0.23768188 1.6780276 0.71699065 -0.30757737 -0.7778383 1.1533622 -0.81481665 -0.20453131 -1.4349117 0.5709559 -0.83859366 0.5888734 -1.1571683 -0.42458647 1.1992781 -0.8869173 1.6897484 -0.91973156
1971 0.34943196 0.6994764 0.56453294 -0.117586076 -1.363373 -0.48214242 0.6542568 0.27213237 1.411875 -0.80678964 -0.2968143 -0.9870725 0.16811588 0.46754643 0.1202089 0.5124831 0.08083574 -0.9787942 0.9444853 0.32284063 0.05955625 0.6243023 0.058926255 0.52746004 -0.0780602 -0.42841133 -1.1451944 -0.43061155 1.1456146 -0.11677575 0.4914547 1.0807748
1540 -0.5009045 0.6991471 -1.0897849 -2.6022015 -0.1656275 2.1250153 -0.5164815 -0.3376446 -0.34907046 0.74129534 1.2957563 0.17580071 0.5429103 0.01579018 1.0251734 0.80279315 -0.5922613 2.2195172 -1.170663 0.08960722 1.5469497 0.120720774 -1.6798426 -0.0180888 0.8363914 -0.9719357 -1.8101606 -0.51081336 1.7846265 -1.7657694 0.7520607 0.60366
1422 -1.3593838 -0.09311047 -1.0870743 -0.52549106 -0.96366745 -0.9247358 -0.7799428 -0.78433347 1.5456903 -0.5281936 0.70936495 -0.16022648 -1.0639309 -0.990164 -0.051642947 0.2572621 -1.8093653 1.4491156 -0.8256303 1.360175 -0.12784037 2.0794723 -0.23829433 -0.1242766 -1.9903982 0.026456129 -2.125225 -0.23432611 0.9048894 0.095158756 -0.042481836 1.6653502
3814 0.18254775 -0.8196295 -0.41230717 0.32543656 -1.4407741 -0.0038712453 -0.43699193 -0.078936465 0.2539063 -0.30636045 -1.1080885 0.30235565 -0.09774934 0.3707253 1.7640996 1.2177604 -1.1437205 0.98549896 -0.12022153 0.4875778 -0.21406315 -0.102790184 -0.7477497 0.053565096 0.63134265 -0.42403185 0.1762416 -0.60341346 1.0541329 -0.5604683 -0.38797477 -0.48812646
4610 0.31993046 1.8366971 -0.36380684 -0.9833892 0.0056374166 2.1306076 -0.8940192 0.0004722748 -0.7368222 -0.059984196 -0.5602149 1.9244385 -0.3140774 0.037407298 3.180154 1.194073 -0.33501938 0.8179123 -0.69212365 1.790402 2.0528252 -0.103142224 -0.42222583 -0.9197389 -0.6642052 -1.1128731 -0.7687603 -0.6451265 0.72698474 -0.6951347 2.476109 1.666465
3427 0.95696217 0.31693417 1.0804977 -0.7062876 0.2153888 0.6721905 0.8802458 -0.24027857 -0.019665394 -0.11911722 -0.4463043 -0.6386842 -0.19282924 0.31906158 1.0362991 0.900695 -0.20370236 -0.10231838 1.1022547 -0.34097403 1.1288457 1.447816 0.062076636 -0.6549234 -0.009769921 -0.8827565 -0.3403947 -0.32753113 0.02498061 -0.33573475 0.58720064 0.10819292
5330 -0.23938714 0.9556248 -0.63536316 -0.43366534 -1.6674193 1.145715 -0.725571 0.25661743 1.0965214 -0.13749902 -0.047434423 0.212 0.7099487 -0.5377592 2.5000904 1.3592418 -2.1716113 0.9057216 0.056959167 -0.5780502 0.91346 -0.19806087 -0.36549598 -1.5199546 0.2815575 -1.3645861 0.38586774 -0.3548502 0.112852596 0.55189335 3.787183 -0.7646716
7117 -0.6285668 -0.6040762 -1.7833788 -0.9868819 -1.2635846 0.13002583 -0.2559575 0.45926994 2.1284416 0.04704088 -1.4616644 -0.100236386 0.47044283 -0.58194566 2.2662547 0.71214515 -2.368338 0.21586253 -1.161012 -0.0928386 -0.39311188 1.6707894 -0.6650277 -0.29573247 -1.5682244 -0.55135554 2.3422034 -0.13571832 -0.24640906 -0.23802142 1.3501381 0.43335873
5658 -0.78813916 0.24356498 0.98814815 -0.9082816 0.5749177 1.2780555 0.71726614 0.2623619 0.45855314 0.8263408 -0.6586778 -0.6649395 0.53358024 0.11179196 1.1337932 0.63591415 0.3671417 -0.6106408 0.7778269 1.34365 1.1494037 0.3509534 0.026655825 0.56301063 0.63183856 -1.9012165 -0.4213126 0.8266712 0.4295155 -0.6574807 0.7326139 0.6964053
2737 -1.8774499 -0.78109044 0.57045805 0.2933475 0.93827164 1.2079884 -0.28015783 -1.3492687 0.50272435 0.47240025 -0.5153801 -0.7189421 -0.9163876 1.9072205 1.6885238 1.3421712 0.120779745 -0.49352527 -0.43729636 0.18359727 -0.3008716 1.5794132 -0.56009 0.20636994 0.045995947 -0.4578478 -0.43949708 -0.09240315 -0.25111234 -1.4052032 1.8776921 -0.6845042
2640 0.1984073 0.5717602 0.7144299 0.11330645 -0.88505137 0.0208482 1.1138195 0.6290682 1.1661603 -0.17213863 -0.25118676 -1.7586398 0.25455993 0.15249208 0.8013424 -0.3235031 0.7810317 -0.40392625 -0.35608995 1.0194535 0.5399686 0.12943041 0.5673461 0.32729694 0.8879326 -1.0969265 -0.24493718 -0.21148454 0.881612 -0.59742594 0.58998364 0.55944496
2013 -0.29986277 -0.06072393 -0.37492546 -0.38811275 0.70771515 0.48007447 1.2204218 0.15615146 0.5780452 -0.5031109 -0.38139305 -1.2329882 -0.12943384 -0.7052009 0.1979586 0.41158968 0.55107784 -0.06198502 -0.4614233 0.5692228 -0.34356877 0.8099427 0.6606825 -0.28636777 0.11177185 -1.0042329 -1.2287618 0.0110746 0.026880758 -0.54144996 0.30123422 0.3915718
2534 0.2124265 -0.120007224 -0.1200936 -0.53165066 -1.6504636 1.3369831 -0.030641658 0.6004079 0.4254781 0.06482175 -0.48381647 -1.0742018 -1.1737504 0.2458366 0.55564135 2.8911154 0.4162743 0.19605096 -1.1739715 0.3290238 -0.44069234 1.2880793 0.781592 -1.8741925 0.19200417 -0.7318442 -0.76705474 -1.202967 -0.30623335 0.64055586 -0.2410695 1.4178933
7445 -0.44048303 0.6424694 0.7596038 0.69587964 0.2051345 0.7945556 -0.0403173 -1.2331399 1.3280793 0.02501521 1.0836225 -0.3957293 0.94760823 -0.40465364 1.4259093 3.1077719 0.016481351 -0.17930481 1.5410509 2.0310223 -0.74236155 0.4319667 0.074251354 -1.1067172 -1.2650764 -1.7298976 -0.114107735 0.39036277 0.7911751 -0.35678592 -0.0026669877 -0.35385224
6924 -0.6530457 -0.10535014 0.8262308 0.2623144 0.5048763 2.451428 0.13702305 -0.938606 0.42955616 1.0450861 -1.4564025 -0.23195238 1.1014419 -0.12401145 1.8650019 1.560654 -0.11346695 -1.3124034 1.4623562 0.3850012 0.83749455 1.1746813 0.5006424 -0.39108866 -0.4001457 -2.059654 -0.92564416 1.2482451 0.035786718 -0.64539033 1.3627068 1.3561149
1369 0.12486982 -0.03181381 1.0973185 0.2207303 0.24827029 1.4311131 2.1762645 -1.37208 0.34244847 0.7647485 -0.2478486 0.95619935 1.4312001 -1.5649793 1.5670067 2.3831286 1.067324 1.2626874 -1.0165689 0.7230966 -0.6005856 1.2145114 0.76907253 -1.1277738 -1.6785251 -1.4403955 1.3662151 -0.8885185 0.9743907 -0.80756474 1.925368 0.947465
4221 0.2427739 0.63511556 -0.37352335 -0.15368968 -1.5624515 1.0855973 -0.07266256 1.5716219 -0.89893615 0.059741497 -0.3137543 0.6685253 0.20796834 -0.7890866 0.84740376 2.3021147 0.44317552 0.5432319 -1.063156 1.8413938 0.10714106 1.4871892 -1.0889506 0.26315156 -2.9838662 -0.82909346 -0.009294985 -1.1121765 -1.2091461 -2.1537442 2.0334597 0.71844757
6919 -0.878604 0.35441485 -0.49557972 -0.041797485 0.5687049 2.0190094 1.3697627 -1.340918 -1.082456 0.25900188 0.5116748 -1.2342881 -0.26152965 -0.5821439 0.5549044 0.06608028 -1.0579903 -1.5219085 -0.263153 2.1988628 -1.86918 0.80955744 -1.0182408 -0.4210436 -2.2497985 -0.13020064 -0.5522531 -1.8786265 1.1593279 -1.532127 2.7452831 1.2569053
6681 -0.4852926 0.55560124 -1.1143844 -1.7776383 0.12506452 1.1812223 -0.6113378 1.1167547 -0.55871874 0.27372 0.81242174 0.3086636 1.0129963 0.032899827 0.4442254 0.35482237 -0.68558174 2.244362 -1.0449436 0.018773597 0.774638 0.33270878 -2.1691306 -0.20782311 0.9563076 -1.3037124 -1.2765425 0.08499809 1.9837251 -1.1880734 0.74367744 0.82299113
7444 -0.8384086 -0.5633967 -0.23493467 -1.8127803 -1.1998264 1.3894907 -0.7869976 0.8741887 1.9005018 2.3003666 -0.80747706 -0.81552386 0.3740209 0.68835926 0.3236379 0.8588206 1.4770634 -1.6564403 -0.14259306 2.488179 0.7701366 1.0915146 -1.3801552 -1.0051683 -0.78638065 -2.3030612 0.9199882 -0.63769 0.464501 0.17118263 0.32821667 0.24746287
6378 0.2475851 -0.33771998 0.59784967 -0.57726204 -0.24981618 -0.11167009 0.46457452 0.24323958 -0.15533341 -0.20904365 -0.35976115 0.12874918 -0.11650412 0.2404564 -0.40826198 1.0666358 0.12829068 1.2578609 0.9866703 0.059509598 1.13107 1.2214048 -0.62924665 -0.6452408 -0.21281035 -1.0291597 -0.17908439 -1.6830286 0.6704661 -0.48048633 1.0082709 0.5086193
2980 0.009523488 -0.40085712 -0.5397323 0.08878118 -0.34365612 0.45848218 0.30662903 -0.3696237 0.1733711 -0.5111487 -0.2376237 -1.5667697 0.1521308 0.05286389 0.7439831 0.12305035 -0.06126028 -1.3624396 -0.7951556 0.43756822 0.17755976 0.1769683 -0.0474554 0.23702301 -0.7553039 -0.79334897 -0.9524551 -0.29857787 -0.13122164 -0.2682853 0.1374832 0.41298607
6222 0.39089552 0.14664057 -0.6742763 -0.41862956 1.073051 -0.14798146 -1.0640588 -0.5973096 1.3470047 -0.46593735 -1.2685245 -1.9569086 0.054618035 -1.1405369 0.065352544 2.1212604 0.9688491 -1.6198404 -0.4355144 1.696702 1.5875204 1.3050066 -2.2602766 -2.5125668 -2.021777 -0.00030662835 -1.2039615 -0.64477026 0.5271127 0.69116145 0.14242001 0.45537913
6795 -0.00464766 -0.10582063 0.51411265 0.6422481 -0.9189079 0.74067694 -1.124813 -0.15576673 0.1191518 -0.03718039 -0.76480085 0.27617362 -0.057977196 0.7128547 1.7849525 1.4782914 -0.1504072 0.6873201 -0.6648245 1.3328439 -0.33424014 -0.07223561 -1.5975893 0.5448721 0.059271567 -0.88583916 -0.7055944 -1.1465801 0.8718672 -1.6896553 -0.74899715 -0.93391395
5183 0.94411665 0.5941093 1.9117616 -1.7625858 -1.6891233 0.12686685 0.13779254 0.49571124 -1.3921221 -0.30269736 0.60999995 -0.22110142 -0.5756564 -0.25633657 0.60644335 -0.17429672 -1.0104094 0.6888837 -0.45571318 1.5932436 0.18853952 2.5805125 -1.3656092 -0.15362206 -0.8059022 -0.3451762 -0.33690694 0.6861258 0.056985043 -1.7491719 -0.41929838 0.2082644
3153 -0.036243122 -1.0386564 -0.7679361 -1.1579531 -0.3646048 -0.22268535 0.39934137 0.33478087 0.40286747 -0.6364295 -0.23044111 -0.17434186 -0.16949578 -0.2675088 0.85418165 0.5112026 0.09324576 -0.4838091 -0.81682354 -0.5293443 0.6153648 0.47747615 -0.29917315 -0.6294141 0.42841908 -1.1196585 -0.24178605 0.7915939 -0.12337887 -1.2582651 0.19843426 -0.46038097
6619 0.60272247 1.4295281 0.6761277 0.27162012 -0.874895 -0.17594416 0.09163429 -0.3303437 1.1008055 -0.32049736 0.4160208 0.55541325 -0.55263287 0.05786123 1.0151106 1.9538623 -0.7960123 0.7396799 1.2933942 2.5641425 -0.17596182 0.61949354 1.055702 -1.212973 -0.12602106 -2.1351352 0.9165895 1.6906921 0.4301055 -1.1681135 0.78538287 0.47900805
6284 0.7374825 -0.9955112 -0.6211345 -1.268646 -1.6155205 -1.2151568 0.35235173 0.016033296 1.5587265 1.0124062 1.3153481 1.1554095 0.38200545 0.31722713 0.20808347 1.0224837 -1.1377822 0.25477853 -0.36660278 1.2170974 0.4851477 0.61688024 -0.67167723 -0.7957975 -1.6086385 -1.5312806 -1.0812243 0.44837454 -0.14158873 0.58011013 0.24477878 -0.68633986
6126 1.2329352 -0.17817487 -1.0982422 -0.6459293 -1.2448907 -0.47499034 -1.0282662 -1.6709836 1.9351705 1.6626298 0.4120481 0.2263882 0.3485297 -1.6592914 1.2209667 3.1632338 0.6567963 -0.21526875 1.4782714 1.050078 -0.43903202 1.0456196 -1.3714958 -0.8932097 0.18349443 -0.8577728 0.5136698 0.06982187 2.2890162 -0.86999094 -0.6127391 -0.32217723
161 0.97161126 -0.42587483 0.011268338 -0.003241204 -2.30799 0.28152135 -0.9414026 -1.7254701 -0.2682966 0.60835403 0.879984 -0.4180132 -0.30026042 -0.35754892 0.36515266 -0.6715223 -0.19329332 1.0232726 -0.17641938 1.631572 -0.64465976 1.8515928 0.06336959 -1.0719671 -0.06477991 -0.8675608 -0.45510566 -0.6262876 2.1208827 0.6124326 0.403432 1.0780373
2216 -0.40804756 -0.027985437 -0.2021466 0.19784911 -0.21606077 -0.3897859 -0.19607681 -0.62306714 0.8472441 -0.9724602 1.6102684 1.3426192 -0.7179278 0.18600541 0.8814811 0.46948066 0.5268475 -0.60878927 0.3486975 0.72941285 0.33893722 1.3497673 -0.45704636 -0.87990457 0.037578084 -0.83747905 -0.6007865 -0.2363357 -0.32390353 -1.6459998 0.38355124 -0.052724216
6225 0.19760583 -0.77838904 -0.8752879 0.12450588 -0.7463617 -1.0547949 1.8622806 -1.0189335 2.0052724 0.8190085 -0.174793 0.15187633 -1.0230671 -0.22552834 0.13942915 0.99147403 1.9526148 0.21597528 0.8012736 1.1430825 -1.0234039 1.7447783 -2.0236194 -0.62923765 -0.24318619 -0.74420077 -1.2898206 0.6876417 1.745733 -0.07552191 1.193952 -0.8773449
4166 -0.5554224 -0.20615987 0.7066521 -0.119440764 0.2974495 -0.94479746 0.699594 -0.3354075 0.8126654 -0.82748026 0.23192059 -1.043012 0.07933117 0.21722138 0.034904025 0.049077544 1.1278387 -0.63496125 0.32124493 1.6082397 0.5607833 1.250777 0.030334363 -0.3244871 -0.51592773 -2.0520957 -0.35888958 -0.5076647 0.79233974 0.2773757 0.63034075 -0.3046944
3400 0.46007285 0.048612326 0.013918143 1.3053665 -2.0091171 0.5142388 0.8434439 -1.0438218 1.4552047 -0.8468088 1.760591 0.85755754 1.647782 1.1509236 1.2214124 1.9757057 -1.1647176 -1.346679 -0.6662731 2.2893014 -0.2194381 -0.022538714 -1.2587552 -0.9374181 -0.9625901 -0.052886818 0.3305491 1.5911525 0.072611384 -1.2477092 -0.074876405 2.7083895
4187 -0.23645176 -0.08498097 -0.4129761 -0.5582595 0.8776441 -0.60404277 0.41219535 -1.4248017 0.4942033 -0.3743977 -1.0538803 0.11843277 -0.6388396 -1.0699294 0.5448169 1.1931316 -0.5680747 -0.14433868 -2.364834 1.0150167 0.1336107 0.56757003 -0.4320115 -0.6096949 -0.17453173 0.60562974 -0.12595892 0.6035064 0.6813719 -1.6775559 0.22581136 -1.0492663
3849 0.0060924543 0.116015166 0.47843492 0.11883763 -0.05219769 0.5523396 0.5252367 -0.5627327 -0.4397214 -0.4196657 -1.2230033 0.4713911 0.4391141 -0.4627436 0.55282855 1.2815417 -0.54135936 0.8642509 -0.6837627 1.8154407 -0.2388876 0.1797717 -0.5678092 -0.9272363 0.6833437 1.3148508 0.21821602 -0.9589108 -0.3971352 -0.98921895 0.74636245 1.3492714
1384 0.99557215 1.0821449 0.6446498 -1.5832694 -0.1648852 1.0370299 -0.016498359 -1.3054107 2.6239347 -0.050547864 0.7508003 -2.064439 -1.466406 -0.7229243 1.9844416 3.470091 -1.6472815 0.110715136 -1.0303458 1.1089314 -0.33939046 -0.21911868 -0.3260961 0.09519413 -0.579826 -0.7319408 0.9439516 -0.571044 1.0098242 -1.4845204 -0.2644567 1.3738174
993 -0.049059212 -0.10461904 0.08842031 0.47575584 -0.9412733 -0.39524242 -0.5579139 0.076072395 0.14042209 -0.15274554 0.73871094 -1.0593587 0.5056583 -0.5083244 0.46439192 0.3321528 -0.358303 0.20810777 -0.8010593 2.0768528 -0.039182257 0.1812305 0.33866605 0.113261595 0.75645757 -1.5157899 0.3849935 -0.6061878 0.5594644 -0.8538959 -0.635433 0.9643457
99 0.21493755 -0.13344058 -0.34872806 1.8401091 -1.3352951 0.08668741 0.84975195 -1.7376834 -0.6401617 -0.7794552 -0.05068251 -0.4180977 -1.2629586 0.22461133 0.8318794 2.2294033 0.7942243 0.35306042 -0.42692286 1.1250224 0.12611689 1.9051797 -0.0709717 -0.79423416 -1.4308763 0.060890414 -0.5559355 0.14230864 0.5406076 -2.403413 0.35249215 -2.256172
2119 0.20530333 -1.2798882 0.12477049 -1.8086312 0.3698216 -1.431821 0.57923067 -0.8981311 0.09093483 -0.2497305 -0.64275223 -1.1915234 -1.2526842 0.39675558 1.7907965 0.16983694 0.079655685 -0.09340472 -0.58112204 2.3463125 0.06923824 -0.07333662 0.3455087 -0.53180516 0.517221 -0.3656624 0.2942403 -0.20059858 0.0764412 -0.91200113 1.6654719 1.1609979
7210 -0.019207884 -1.0817206 -0.7359149 0.81355727 -1.4161206 2.1563532 0.26853547 -0.081364624 0.6308662 0.4564037 -0.3678552 -0.47488296 -0.6300291 -0.3262167 0.22095768 3.0756383 -0.28391257 -0.20439643 -0.98433185 0.27721173 -0.16410547 1.6688995 0.12949657 -0.025462033 1.6757631 -1.2692766 -0.42771214 -2.0260687 -0.19867405 0.187347 0.014381268 1.1325992
7205 1.5713503 -0.48664117 -0.5807473 -1.6301901 -0.24902949 1.1363082 0.59002477 0.8238089 0.12254014 -0.5193522 -1.0783632 -0.9877815 0.013057977 0.6794976 -0.74823314 -0.092500634 -0.8112977 0.48926446 1.6652706 1.9908634 -0.25806677 1.3082681 -0.35799807 -0.18863033 1.3957193 0.29014632 0.6055865 -0.87437487 1.3000191 -0.8974633 1.6656826 -0.19897665
4495 -0.13631348 1.1168232 -0.08585716 -0.13236095 0.1311699 -1.133283 -0.20425868 -1.3319908 0.9329211 0.461698 0.22058482 -1.8360832 0.8783373 -1.9933076 -0.42608607 1.272589 2.5923262 -0.61518705 -1.3565024 1.272721 -0.2500801 0.40203363 -1.7049687 -1.0551337 0.3322825 -0.35449138 -0.48085895 0.8164094 1.8707294 -2.3841946 1.555652 0.14045416
4099 -1.338344 -0.038537033 0.3518776 -1.5650584 0.86489034 0.3896337 -0.07843034 -1.6507719 0.6671063 -0.2092037 -0.32274002 0.1967646 -0.45154208 -0.022130528 0.27648705 -0.14861132 -0.6953482 -1.1562625 -2.5545921 1.912093 0.2677742 1.2344261 -3.3719065 0.12764367 -0.54232764 0.29028195 0.5822911 0.802392 1.1353772 -1.4548144 1.2339236 -0.7004736
4864 1.1273613 -1.3322992 0.20607933 0.42077094 0.9022924 0.79425204 0.13756363 -0.9462029 0.103199944 -0.28839678 -0.49067083 -1.0846148 0.39021972 0.046684004 0.2630972 0.56864464 0.5083533 0.039710812 -0.5564901 0.17999107 0.43179667 0.47612733 -0.79829395 0.3366213 0.81935555 0.056626696 -0.4370444 -0.20593315 0.29759765 -0.20090674 1.3426636 -0.4832052
7154 2.2755218 -1.6719791 -1.0612603 -0.7086282 -2.1561177 2.0021675 -1.0445721 0.89871037 0.02873229 -0.60608214 -1.2275785 -0.51006144 0.6180219 0.48757076 0.8885406 0.029292569 0.4366259 0.6259774 -0.2449874 0.17138328 2.1179154 1.3723778 -0.116018556 0.7892459 0.22909243 0.5585111 -0.7454678 -2.6381216 2.3063116 -0.3897776 1.4999864 -0.22348809
2706 1.4219309 -0.49379066 0.5236486 -0.8792607 -0.5529358 0.33376083 0.63350415 0.18456975 0.3279919 0.11179637 -0.89832544 -0.5722153 0.32294416 0.38283634 0.7257456 1.4765358 0.6207323 0.8556508 1.7843359 -0.3164651 0.9240076 1.993589 -0.39689025 -0.6819731 -0.43004262 -1.3796508 -0.058117103 -1.6743556 0.57502466 -0.14079976 0.35234356 -0.288033
5404 -0.21989751 -0.8008248 -2.0381575 -1.6350192 0.40266198 1.3268592 0.116580285 -1.8807065 1.6009696 -0.3013204 -0.44939306 1.1476616 0.8014818 2.2196338 -0.70566267 1.4957145 -0.9952513 -0.74426514 -0.5077651 0.33205974 0.37726662 0.6416126 -0.92004687 -0.46585423 -0.4351558 1.0785438 -0.60170376 -1.5551662 1.3233509 0.03712302 3.1652565 0.07969565
7118 1.8662112 0.424285 -0.5600204 -0.06668259 0.38613454 0.30417544 1.1943026 -0.43380135 0.14182149 0.26537243 -0.78342354 0.013466009 1.4162899 0.0699649 0.68365943 0.26053628 -0.25404346 0.4806898 0.6284678 1.2844366 1.7130902 -0.12070328 0.021906938 -1.6133223 0.6373553 -0.1982976 -0.5812631 0.67771953 1.2736983 -0.83634734 1.2203294 -1.5324886
6686 -0.1360828 -0.5717138 -0.20596783 1.2791955 0.34528682 1.5845596 -0.43466154 0.02472212 1.5076779 -0.36685902 -0.32774884 -0.8334867 0.52576995 0.6304888 -1.3023615 1.7938466 0.83564425 -0.9166061 -0.2029833 0.8619227 0.7955063 1.1789393 -1.3742332 -1.375856 1.8217366 -1.4325072 -0.66766214 -0.79237026 0.8439138 0.009476364 0.28445795 2.1591287
4618 0.5372142 0.998735 0.3798629 -1.0244404 -0.32234484 -0.28976253 1.5786949 -0.25538257 1.9272891 -1.282564 0.2531493 0.8562602 0.4333371 -0.40554926 0.9352514 1.7506598 -0.77199984 -0.2902376 0.046757825 1.1970496 0.4985846 1.0949479 -3.1143687 -0.39049006 -1.2541726 -0.83665293 0.5427872 -1.7053916 1.4018004 0.50141126 0.5266222 -1.956004
1883 -0.2638916 0.93833107 -0.5092971 -0.022819353 0.42895734 -0.62902397 0.6178205 -1.7030625 -0.124413066 -0.68931496 0.87828255 0.19408034 0.44828516 -0.19968489 0.34830922 1.3182409 -1.307344 -0.21140829 1.6761422 -0.33527738 0.3302566 2.386769 -1.4660418 -1.5595404 0.6808766 -0.3034748 -0.26455596 -1.0872648 0.9623298 -0.39478555 0.769844 -0.029842319
2901 2.0189335 0.15299685 -0.30338046 0.31675363 -1.116079 1.3569213 0.005189914 -0.9403076 0.720895 0.52996254 -0.12126507 -0.08189099 -0.069380246 1.6327155 0.31531417 -0.066774 -0.41751456 -0.86158884 -1.0742383 0.61729217 -0.47053832 0.44309422 -1.2622616 0.067480914 1.0601311 0.2872706 -0.63639754 -0.10655474 0.49936727 -1.3303125 1.0462672 0.43518057
7379 0.73657167 -0.3429617 0.0955262 -0.3085647 1.4694308 0.58189315 0.9639164 -0.24685979 0.73961735 -0.69215524 -0.44473988 0.36796835 0.5392098 1.9904969 0.22355075 0.81202453 1.2861171 -0.7791449 -0.022657609 2.6363552 -0.48673686 0.2623404 -0.44439128 0.2170929 -0.3493668 0.2564244 1.3285749 -1.4121163 2.9372654 -0.8420586 2.5546873 0.9890536
1589 0.90890944 -0.27064216 0.8311055 -0.48321587 0.109743044 -0.22356823 0.05333505 -0.35088167 0.27918917 -0.66140485 -0.01565613 0.3592295 0.86574054 0.35715663 0.93412 -0.8879455 0.9583849 -1.5856998 -0.10464632 0.69959354 -0.25908428 1.128196 -0.051467847 -0.8987164 0.8599926 -0.96300167 -0.2435356 -0.48271513 1.0821903 -0.1098112 0.023238966 0.5373583
6116 0.31806895 0.7443753 -0.86297596 0.09627718 -0.905116 -0.98458505 2.0631495 -0.5735036 1.5704268 0.15305297 0.037367936 1.8335681 1.0691797 -0.34184352 0.8587089 1.116503 -0.75511926 0.18881053 0.74874836 0.41678005 -0.2777742 1.5928596 -0.19498995 -0.78011787 -1.5719585 -0.7237203 1.2539943 -1.3742064 1.6191903 0.2994121 2.4739363 1.8843671
5491 -1.0438105 -0.54285043 -1.325769 0.73737407 -1.2330738 0.2498705 -0.7515416 0.39652148 2.0839376 -0.34166124 -0.05178296 -0.45287532 -0.15763146 -0.7316574 -1.5500683 0.1436341 -0.69769645 -0.03822112 -0.20974764 3.0305932 0.9977009 2.1057656 0.14795947 -2.21371 0.07775807 0.32492155 1.3148329 -0.21434908 0.52675587 -0.73122764 0.11809392 -0.9963989
2450 1.553139 1.0312831 1.7060041 -0.344899 0.36871 -0.7699404 1.4992996 0.49698025 1.7698978 -1.182693 -0.48158896 0.8115412 0.9972304 0.776875 1.4043776 1.1678402 -0.978539 -0.3816757 -0.38338274 1.5485417 0.52368784 1.217183 -2.8885841 -0.21900794 -1.1194891 -0.2865954 0.027888257 -1.2684863 1.139808 0.74045813 0.8263828 -2.1149964
6024 0.05524675 -0.72204995 -0.5068067 1.2294315 -0.75572485 0.93489426 -0.7781549 -0.43204764 0.2915557 0.26271218 -0.06347414 -0.47946647 0.29522043 -0.019897228 1.5004466 0.9381852 -0.7905892 -0.65275955 -0.015642826 0.63469607 0.14631104 0.86246467 -0.51722324 1.0649567 0.9334421 0.015820706 0.21015751 0.615009 0.9306256 -0.3881546 -0.06681729 0.36543396
1806 -0.531705 0.2559795 0.5458857 -0.10934325 -0.12954174 0.7900324 0.14707005 -0.7008342 -0.09649725 0.77454704 0.9699911 -0.40969446 -0.6286228 -0.24716024 1.1550759 0.9644307 -0.8389099 0.41365024 0.09759726 0.38080996 -0.04381137 1.6117488 -0.45172784 -1.5653034 1.1215011 -0.93558633 -0.319076 -1.307636 1.3984092 0.2268658 -0.23697387 0.53074175
448 1.5458819 0.88617396 0.57989734 1.9823587 -0.7231794 1.5479509 -0.3893723 0.023314603 1.1964548 -0.33009207 -1.5222565 -0.59125245 0.48483193 -0.041556 0.33118564 0.42412263 -1.9335991 2.489557 -1.8280696 3.7156613 0.38686115 1.7274557 -0.72294325 -0.16530275 -0.65259725 -0.18365516 -0.74932206 -0.627997 0.5233675 1.2491859 0.5769371 -0.71923757
6717 -0.20627485 -0.9590654 0.8197444 0.35920712 -1.386434 0.703991 -1.0356218 -0.5763004 0.41454282 -1.0712043 1.079245 -1.147087 0.1950994 -0.95941895 -0.10031969 0.21880427 -0.8938574 0.91793525 0.80428714 1.8129307 0.8215634 2.013836 0.15038973 0.25574324 0.7016316 0.038123515 -0.025018428 -0.8783164 1.4040395 1.0318513 0.1804896 -0.16926646
1695 0.0782411 -0.71198046 -0.4821649 -0.74524486 0.17875081 0.72351366 0.58510023 -0.30273598 0.5661317 -0.44369045 -0.33445773 -0.5670584 -0.019764094 -0.56881124 -0.42714417 0.65510297 -0.75941163 -0.6184973 -0.25571656 0.7800085 0.41046908 0.40058976 0.7644095 0.59860873 0.259914 -0.6299797 -0.25366768 0.9204535 0.44865718 -0.08138583 0.7093591 -0.18805476
606 -0.12928982 1.3705873 0.07411476 -1.6623391 0.297786 2.1082425 -0.4889506 -0.9205297 0.8059837 -0.048805013 -0.6524564 -2.6093783 0.34734103 0.40801027 -0.44985148 0.16665666 -2.0578165 0.99318415 -1.2949442 0.66208196 -0.9427155 1.2065328 1.3029876 -0.9603255 1.0652118 -0.15301485 -0.3115645 0.22948705 2.2963443 -1.4243218 0.106094584 1.7806618
1709 1.0039927 -1.2542317 1.2551001 -2.046855 0.7192805 -0.3513377 0.68131095 -0.18940529 1.2614044 -1.1918371 -0.77468336 -1.4704636 0.23766495 -0.824174 0.2772773 1.333096 -1.4915687 -0.93984646 -0.15514274 0.33481526 -0.60001427 0.664922 -1.4221778 -0.6187243 1.2896765 -1.4507098 0.06554768 -1.498135 0.77663815 -0.78750926 -0.34162962 -1.05368
1233 -1.7680365 1.5686425 0.93219054 -1.603985 -0.45637646 1.4141941 0.1914321 0.31906202 0.25099322 0.1969447 -1.2071701 -2.0391743 0.396423 0.19710603 0.27560046 1.6780227 -2.3808403 0.7769309 -1.7451553 0.54756826 0.37662807 2.2247655 -0.18639939 -0.08199857 -1.1649461 0.18650398 1.0767767 -0.20904441 1.8528413 1.0837357 1.1310532 0.9503475
4951 2.2137153 -1.0286398 0.07155962 -1.3605503 0.21021102 0.5943267 0.18232755 0.67739844 -1.0758792 -1.456721 -0.21810988 -1.2719861 -1.2649981 -0.3744172 0.89816886 2.518578 -1.7051922 0.8561549 -1.7509074 0.057612784 0.22226296 1.206687 0.37373683 -1.8515923 -0.64826167 0.17063169 -2.7087133 -0.053554133 2.183951 -0.46600384 -0.2728583 -1.3782257
633 -0.51865184 0.90528196 -1.5182488 -2.1611512 -1.2186317 -1.1814237 -0.25718528 -1.8763533 0.51008445 0.2757562 0.72473097 -0.5016686 0.013598006 -0.029831186 1.7264234 2.1101723 -0.77913195 0.58089936 1.2081403 -0.6313253 0.14218678 2.3608801 -1.2864476 -1.222299 0.47188798 -0.36018357 -0.25019988 -0.4877906 1.2723889 0.41871932 0.30736598 0.25432387
6635 -0.21655253 0.7248493 -2.032227 -1.0991948 -1.8346567 1.8343577 -1.2747148 0.3180748 0.31911817 0.33757958 0.3604589 -1.8906333 -1.2562319 0.6589692 0.2164488 2.9056895 0.529557 0.40684932 -0.1113585 -0.2937559 1.8948869 2.0008273 0.69314504 -0.90962636 0.6850459 -1.0917658 -1.726704 -0.14344545 0.462972 -0.0040230635 0.61224824 1.8906376
3350 0.1821338 -1.1995953 0.056327615 -1.2279794 0.4865835 0.6936908 -1.3581681 1.019827 0.8029551 -1.0368595 0.59846103 -0.066522196 -0.61009365 0.2801461 0.5093166 0.91510236 -1.3890425 1.5701069 -0.09853145 1.628421 -0.9569288 1.486581 -0.3978325 0.09808737 0.9755752 -0.034885578 -0.6540676 -0.5052835 1.5382285 0.08543704 -0.36191905 0.45571017
4852 0.12806736 0.110830836 -0.78514636 -0.4395183 -0.20847021 -0.62308824 0.39675102 0.79506683 0.9809663 -0.6521331 -0.7155895 1.3438967 -0.28680664 0.8739465 0.99331295 0.63335216 -1.535249 0.6767116 -0.11506129 1.0369166 -0.2288712 0.7290739 0.9851555 -0.0640271 1.3125409 0.10779146 -0.425291 -0.39631584 1.547203 -1.2126112 -0.2548025 0.16829152
1712 0.6543698 0.035747215 -1.111968 -1.9313722 -0.9439732 1.030646 -0.14056616 -0.4564382 1.208823 -1.9352282 -0.9322077 -0.76688725 0.33193034 0.6189666 -0.35152516 -0.09993399 -1.0633452 0.89674246 2.1188364 2.3945436 -0.050584305 0.46924224 -0.27937815 -0.55135393 1.3406703 -0.06945162 1.1658915 -0.42111555 1.4104997 -0.18086676 1.453506 -0.37442493
